{"learner":{"attributes":{"scikit_learn":"{\"_estimator_type\": \"classifier\"}"},"feature_names":[],"feature_types":[],"gradient_booster":{"model":{"gbtree_model_param":{"num_parallel_tree":"1","num_trees":"100"},"iteration_indptr":[0,1,2,3,4,5,6,7,8,9,10,11,12,13,14,15,16,17,18,19,20,21,22,23,24,25,26,27,28,29,30,31,32,33,34,35,36,37,38,39,40,41,42,43,44,45,46,47,48,49,50,51,52,53,54,55,56,57,58,59,60,61,62,63,64,65,66,67,68,69,70,71,72,73,74,75,76,77,78,79,80,81,82,83,84,85,86,87,88,89,90,91,92,93,94,95,96,97,98,99,100],"tree_info":[0,0,0,0,0,0,0,0,0,0,0,0,0,0,0,0,0,0,0,0,0,0,0,0,0,0,0,0,0,0,0,0,0,0,0,0,0,0,0,0,0,0,0,0,0,0,0,0,0,0,0,0,0,0,0,0,0,0,0,0,0,0,0,0,0,0,0,0,0,0,0,0,0,0,0,0,0,0,0,0,0,0,0,0,0,0,0,0,0,0,0,0,0,0,0,0,0,0,0,0],"trees":[{"base_weights":[-0E0,3.530962E-1,-5.1937985E-1,5.313243E-1,-5.1341E-1,1.4782609E0,-6.10101E-1,-8.560311E-2,6.8650794E-1,-1.4375E0,-2.0895523E-1,4.8571432E-1,-0E0,-4.3544304E-1,-1.2745098E0,2.3463687E-1,-7.804878E-1,5.173745E-1,1.2340425E0,-5E-1,-1.6153846E0,-0E0,-1.1351352E0,-2.1651377E-1,-9.076305E-1,-1.5789474E0,2.7027026E-1,3.902439E-1,-1.1578947E0,8.5714287E-1,-1.0555556E0,8.3832335E-1,2.7293065E-1,-4E-1,1.3214285E0,-3E-1,1.5E-1,-1.20000005E-1,-5.217391E-1,-1.0666667E0,2.2535211E-1,-5.04E-1,-0E0,-5.583039E-1,1.5037593E-1,8.3870965E-1,-1.1351352E0,-1.6097561E0,-1.6363637E-1,1E0,-8.235294E-1,7.058824E-2,3E-1,-4.4000003E-1,-0E0,-0E0,3.6E-1,-1.92E-1,-5.0769234E-1,1.6638657E-1,4.4400004E-1,-1.7538463E-1,1.24352336E-1,-0E0,-1.6363637E-1,4.2857148E-2,4.3800002E-1,-4.1538465E-1,1.5E-1,-2.7027028E-2,3.6E-1,-3.3975905E-1,-9.411766E-2,-5.8285717E-2,2.3368421E-1,4.0800002E-1,-2.4000001E-1,-3.6113745E-1,4.0000003E-2,-2.0000002E-1,-4.9230772E-1,3.8823533E-1,5.454546E-2,-3.2307696E-1,-0E0],"categories":[],"categories_nodes":[],"categories_segments":[],"categories_sizes":[],"default_left":[0,0,0,0,0,0,0,0,0,0,0,0,0,0,0,0,0,0,0,0,0,0,0,0,0,0,0,0,0,0,0,0,0,0,0,0,0,0,0,0,0,0,0,0,0,0,0,0,0,0,0,0,0,0,0,0,0,0,0,0,0,0,0,0,0,0,0,0,0,0,0,0,0,0,0,0,0,0,0,0,0,0,0,0,0],"id":0,"left_children":[1,3,5,7,9,11,13,15,17,19,21,-1,-1,23,25,27,29,31,33,35,37,39,41,43,45,47,49,51,53,55,57,59,61,63,65,-1,-1,-1,-1,67,69,-1,-1,71,73,75,77,79,-1,81,83,-1,-1,-1,-1,-1,-1,-1,-1,-1,-1,-1,-1,-1,-1,-1,-1,-1,-1,-1,-1,-1,-1,-1,-1,-1,-1,-1,-1,-1,-1,-1,-1,-1,-1],"loss_changes":[1.1691179E2,5.8881172E1,4.7658783E1,3.0239868E1,1.8057297E1,2.3933754E0,2.8165993E1,1.4480674E1,2.2698357E1,1.8605766E0,9.724889E0,0E0,0E0,2.022018E1,2.4411484E1,1.0148637E1,1.0139179E1,1.50108795E1,8.917625E0,2.5E0,1.2595329E0,1.0336151E1,5.721081E0,1.7169607E1,2.5684002E1,4.8313904E-1,8.206677E0,3.6384506E0,1.6982455E0,1.0285714E0,3.6798306E0,1.4379879E1,1.38097725E1,2.1818179E-1,8.937149E0,0E0,0E0,0E0,0E0,4.4282045E0,1.1022409E1,0E0,0E0,9.581062E0,1.4558195E1,7.708388E0,4.9939117E0,1.1507416E-1,0E0,1.2085562E0,8.86878E-1,0E0,0E0,0E0,0E0,0E0,0E0,0E0,0E0,0E0,0E0,0E0,0E0,0E0,0E0,0E0,0E0,0E0,0E0,0E0,0E0,0E0,0E0,0E0,0E0,0E0,0E0,0E0,0E0,0E0,0E0,0E0,0E0,0E0,0E0],"parents":[2147483647,0,0,1,1,2,2,3,3,4,4,5,5,6,6,7,7,8,8,9,9,10,10,13,13,14,14,15,15,16,16,17,17,18,18,19,19,20,20,21,21,22,22,23,23,24,24,25,25,26,26,27,27,28,28,29,29,30,30,31,31,32,32,33,33,34,34,39,39,40,40,43,43,44,44,45,45,46,46,47,47,49,49,50,50],"right_children":[2,4,6,8,10,12,14,16,18,20,22,-1,-1,24,26,28,30,32,34,36,38,40,42,44,46,48,50,52,54,56,58,60,62,64,66,-1,-1,-1,-1,68,70,-1,-1,72,74,76,78,80,-1,82,84,-1,-1,-1,-1,-1,-1,-1,-1,-1,-1,-1,-1,-1,-1,-1,-1,-1,-1,-1,-1,-1,-1,-1,-1,-1,-1,-1,-1,-1,-1,-1,-1,-1,-1],"split_conditions":[3.9016652E0,3.9706845E0,-4.2802706E0,-1.8001523E0,-2.245126E0,-9.9341893E-1,2.7743733E0,-4.043804E-1,1.6232907E0,-3.099432E0,1.7687386E0,4.8571432E-1,-0E0,9.989658E-1,1.4406248E0,4.0226297E0,-1.8132638E0,-2.421349E0,-1.5823879E0,6.112639E-1,-4.79866E0,-2.6924298E0,3.6146262E0,2.4752864E-1,-2.4024465E0,1.2302414E0,5.5133314E0,5.376548E-1,2.2233849E0,5.803114E-1,-2.8282073E0,7.910081E-1,-2.1224787E0,2.7226691E0,-3.6413853E0,-3E-1,1.5E-1,-1.20000005E-1,-5.217391E-1,3.0344527E0,-2.35982E0,-5.04E-1,-0E0,-1.691931E0,2.403136E0,3.4421434E0,3.4111557E0,-5.854827E0,-1.6363637E-1,5.523534E0,6.7172594E0,7.058824E-2,3E-1,-4.4000003E-1,-0E0,-0E0,3.6E-1,-1.92E-1,-5.0769234E-1,1.6638657E-1,4.4400004E-1,-1.7538463E-1,1.24352336E-1,-0E0,-1.6363637E-1,4.2857148E-2,4.3800002E-1,-4.1538465E-1,1.5E-1,-2.7027028E-2,3.6E-1,-3.3975905E-1,-9.411766E-2,-5.8285717E-2,2.3368421E-1,4.0800002E-1,-2.4000001E-1,-3.6113745E-1,4.0000003E-2,-2.0000002E-1,-4.9230772E-1,3.8823533E-1,5.454546E-2,-3.2307696E-1,-0E0],"split_indices":[0,3,3,16,15,10,11,2,14,12,10,0,0,18,17,9,17,3,9,5,17,4,13,14,14,2,0,15,15,2,3,10,19,1,8,0,0,0,0,0,0,0,0,9,1,3,12,5,0,1,0,0,0,0,0,0,0,0,0,0,0,0,0,0,0,0,0,0,0,0,0,0,0,0,0,0,0,0,0,0,0,0,0,0,0],"split_type":[0,0,0,0,0,0,0,0,0,0,0,0,0,0,0,0,0,0,0,0,0,0,0,0,0,0,0,0,0,0,0,0,0,0,0,0,0,0,0,0,0,0,0,0,0,0,0,0,0,0,0,0,0,0,0,0,0,0,0,0,0,0,0,0,0,0,0,0,0,0,0,0,0,0,0,0,0,0,0,0,0,0,0,0,0],"sum_hessian":[6.355E2,3.785E2,2.57E2,3.1425E2,6.425E1,1.05E1,2.465E2,6.325E1,2.51E2,1.5E1,4.925E1,9.5E0,1E0,1.965E2,5E1,4.375E1,1.95E1,1.9325E2,5.775E1,3E0,1.2E1,4.1E1,8.25E0,1.3525E2,6.125E1,4.175E1,8.25E0,4E1,3.75E0,2.5E0,1.7E1,8.25E1,1.1075E2,2.75E0,5.5E1,2E0,1E0,1.5E0,1.05E1,6.5E0,3.45E1,5.25E0,3E0,6.975E1,6.55E1,6.75E0,5.45E1,4E1,1.75E0,5E0,3.25E0,3.3E1,7E0,2.75E0,1E0,1E0,1.5E0,1.15E1,5.5E0,5.85E1,2.4E1,1.525E1,9.55E1,1E0,1.75E0,6E0,4.9E1,5.5E0,1E0,2.675E1,7.75E0,1.975E1,5E1,4.275E1,2.275E1,5.25E0,1.5E0,5.175E1,2.75E0,2E0,3.8E1,3.25E0,1.75E0,2.25E0,1E0],"tree_param":{"num_deleted":"0","num_feature":"20","num_nodes":"85","size_leaf_vector":"1"}},{"base_weights":[-2.5937813E-3,1.371864E-1,-7.1239954E-1,4.629361E-1,-1.6540788E-1,-1.1956166E0,-4.0013742E-1,5.599171E-1,-2.7064088E-1,9.718974E-1,-2.4990505E-1,-1.2475371E0,7.297101E-2,-6.636447E-1,2.2430742E-1,7.957503E-1,2.8668478E-1,-6.3952065E-1,7.1207164E-3,-3.1694226E-2,1.234004E0,-7.229357E-1,-1.08832896E-1,-1.2782394E0,-8.310672E-2,-2.9672438E-1,-1.1117224E0,-6.9627553E-1,6.449664E-1,3.8249606E-1,1.0267473E0,7.884727E-2,8.144762E-1,-1.0168195E0,-1.1182142E-1,-7.5565594E-1,3.0235553E-1,6.138313E-1,4.2461678E-1,1.15228435E-2,-9.4576585E-1,-6.6997236E-1,5.08173E-2,-8.7301856E-1,-1.4314566E0,-5.9954864E-1,6.8738955E-1,-1.3851545E0,-5.767867E-2,-5.1401023E-2,-3.6432227E-1,8.25413E-1,-2.0514305E-1,2.791468E-1,4.6741642E-2,1.6337939E-1,3.6642584E-1,5.1577974E-2,-3.7340218E-1,2.974133E-1,-1.7200333E-1,-3.8124058E-1,-1.2732074E-1,-3.808779E-2,-3.1331792E-1,-2.6688358E-2,2.9586768E-1,-1.5197408E-1,1.4155525E-1,7.874731E-3,-3.468173E-1,-2.4047934E-1,2.543868E-1,3.377374E-2,-2.4226229E-1,-6.0174093E-2,-3.225212E-1,-4.393061E-1,-1.2185281E-1,-2.4328671E-2,-2.8713557E-1,3.6091602E-1,-1.4941448E-1,-1.1514801E-1,-4.3893772E-1,-2.7893007E-1,2.6904684E-1,2.967002E-1,-7.934193E-2],"categories":[],"categories_nodes":[],"categories_segments":[],"categories_sizes":[],"default_left":[0,0,0,0,0,0,0,0,0,0,0,0,0,0,0,0,0,0,0,0,0,0,0,0,0,0,0,0,0,0,0,0,0,0,0,0,0,0,0,0,0,0,0,0,0,0,0,0,0,0,0,0,0,0,0,0,0,0,0,0,0,0,0,0,0,0,0,0,0,0,0,0,0,0,0,0,0,0,0,0,0,0,0,0,0,0,0,0,0],"id":1,"left_children":[1,3,5,7,9,11,13,15,17,19,21,23,-1,25,27,29,31,33,-1,35,37,39,41,43,-1,45,47,49,51,53,55,57,59,61,-1,63,-1,65,-1,67,69,71,73,75,77,79,81,83,85,-1,-1,87,-1,-1,-1,-1,-1,-1,-1,-1,-1,-1,-1,-1,-1,-1,-1,-1,-1,-1,-1,-1,-1,-1,-1,-1,-1,-1,-1,-1,-1,-1,-1,-1,-1,-1,-1,-1,-1],"loss_changes":[6.2004128E1,5.1543156E1,1.5035908E1,1.8058868E1,2.6326447E1,3.281086E0,1.0673291E1,1.4118408E1,3.2799456E0,5.0306034E0,1.6834274E1,7.9704285E-1,0E0,7.106716E0,8.088854E0,1.0961067E1,1.1421551E1,9.6775866E-1,0E0,4.452684E0,8.265381E-1,9.510525E0,1.762901E1,1.0581741E0,0E0,8.229719E0,5.6842823E0,1.6056249E0,3.9356132E0,5.350573E0,6.439934E0,9.605069E0,7.8048763E0,2.074604E-1,0E0,4.959637E-1,0E0,1.4424413E0,0E0,3.697059E0,9.1358185E0,9.385414E0,8.246048E0,1.5183029E0,2.62249E-1,3.740137E0,4.657211E0,6.748791E-1,5.1315846E0,0E0,0E0,2.5493975E0,0E0,0E0,0E0,0E0,0E0,0E0,0E0,0E0,0E0,0E0,0E0,0E0,0E0,0E0,0E0,0E0,0E0,0E0,0E0,0E0,0E0,0E0,0E0,0E0,0E0,0E0,0E0,0E0,0E0,0E0,0E0,0E0,0E0,0E0,0E0,0E0,0E0],"parents":[2147483647,0,0,1,1,2,2,3,3,4,4,5,5,6,6,7,7,8,8,9,9,10,10,11,11,13,13,14,14,15,15,16,16,17,17,19,19,20,20,21,21,22,22,23,23,25,25,26,26,27,27,28,28,29,29,30,30,31,31,32,32,33,33,35,35,37,37,39,39,40,40,41,41,42,42,43,43,44,44,45,45,46,46,47,47,48,48,51,51],"right_children":[2,4,6,8,10,12,14,16,18,20,22,24,-1,26,28,30,32,34,-1,36,38,40,42,44,-1,46,48,50,52,54,56,58,60,62,-1,64,-1,66,-1,68,70,72,74,76,78,80,82,84,86,-1,-1,88,-1,-1,-1,-1,-1,-1,-1,-1,-1,-1,-1,-1,-1,-1,-1,-1,-1,-1,-1,-1,-1,-1,-1,-1,-1,-1,-1,-1,-1,-1,-1,-1,-1,-1,-1,-1,-1],"split_conditions":[4.584419E0,1.8362359E0,-4.8056507E-1,7.862888E0,-4.779528E0,3.80518E0,1.3204E0,-2.015206E0,3.0723684E0,-1.2722005E0,-2.1258702E0,2.1356542E0,7.297101E-2,2.8475287E0,-2.6173034E0,-2.2013454E0,2.35949E0,2.1616025E0,7.1207164E-3,1.3204E0,-1.916241E0,-1.8005661E0,-1.8178774E0,-5.122171E0,-8.310672E-2,1.3722821E0,8.6488926E-1,-4.213289E0,8.2994545E-1,-4.1617723E0,-1.9153785E0,3.9415576E0,3.5578427E0,-3.7279558E-1,-1.1182142E-1,-3.4490185E0,3.0235553E-1,-4.8980827E0,4.2461678E-1,1.4606556E-1,-2.2319374E0,3.733321E0,5.403134E0,-6.3947076E-1,3.335192E0,-8.244171E0,2.719209E0,-7.461856E0,4.1135836E-1,-5.1401023E-2,-3.6432227E-1,1.0149473E0,-2.0514305E-1,2.791468E-1,4.6741642E-2,1.6337939E-1,3.6642584E-1,5.1577974E-2,-3.7340218E-1,2.974133E-1,-1.7200333E-1,-3.8124058E-1,-1.2732074E-1,-3.808779E-2,-3.1331792E-1,-2.6688358E-2,2.9586768E-1,-1.5197408E-1,1.4155525E-1,7.874731E-3,-3.468173E-1,-2.4047934E-1,2.543868E-1,3.377374E-2,-2.4226229E-1,-6.0174093E-2,-3.225212E-1,-4.393061E-1,-1.2185281E-1,-2.4328671E-2,-2.8713557E-1,3.6091602E-1,-1.4941448E-1,-1.1514801E-1,-4.3893772E-1,-2.7893007E-1,2.6904684E-1,2.967002E-1,-7.934193E-2],"split_indices":[3,0,15,2,10,16,14,3,8,12,16,14,0,1,6,5,13,11,0,14,16,1,9,15,0,15,19,6,19,3,8,9,10,17,0,2,0,10,0,14,4,5,2,13,13,0,15,0,12,0,0,10,0,0,0,0,0,0,0,0,0,0,0,0,0,0,0,0,0,0,0,0,0,0,0,0,0,0,0,0,0,0,0,0,0,0,0,0,0],"split_type":[0,0,0,0,0,0,0,0,0,0,0,0,0,0,0,0,0,0,0,0,0,0,0,0,0,0,0,0,0,0,0,0,0,0,0,0,0,0,0,0,0,0,0,0,0,0,0,0,0,0,0,0,0,0,0,0,0,0,0,0,0,0,0,0,0,0,0,0,0,0,0,0,0,0,0,0,0,0,0,0,0,0,0,0,0,0,0,0,0],"sum_hessian":[6.2295087E2,5.211324E2,1.018185E2,2.5070876E2,2.7042365E2,3.8857967E1,6.2960526E1,2.2164355E2,2.9065195E1,1.7975601E1,2.5244804E2,3.7632957E1,1.2250087E0,4.4232315E1,1.872821E1,1.17937004E2,1.0370656E2,1.2379783E1,1.6685413E1,3.9045131E0,1.4071088E1,5.704505E1,1.9540298E2,3.6171597E1,1.4613612E0,2.5232351E1,1.8999964E1,5.6683087E0,1.3059901E1,4.3238693E1,7.469831E1,7.523096E1,2.8475601E1,3.9632778E0,8.416505E0,2.4625983E0,1.4419148E0,4.1762466E0,9.89484E0,1.3499235E1,4.3545815E1,4.257248E1,1.528305E2,1.1761997E1,2.4409601E1,1.9593851E1,5.6385016E0,1.4836942E1,4.163023E0,3.4766586E0,2.1916502E0,1.1831951E1,1.2279505E0,1.1744155E1,3.1494537E1,2.2577517E1,5.2120792E1,7.110075E1,4.130205E0,2.5509624E1,2.9659774E0,1.9725065E0,1.9907714E0,1.2281431E0,1.2344552E0,1.7100688E0,2.4661782E0,6.3037896E0,7.1954455E0,7.900974E0,3.5644844E1,3.9609684E1,2.962796E0,1.4338249E2,9.448021E0,3.1780438E0,8.583954E0,2.3235811E1,1.1737906E0,8.498448E0,1.1095402E1,3.918918E0,1.7195837E0,1.4997263E0,1.3337215E1,2.188968E0,1.9740552E0,1.0368278E1,1.4636732E0],"tree_param":{"num_deleted":"0","num_feature":"20","num_nodes":"89","size_leaf_vector":"1"}},{"base_weights":[-5.860471E-3,9.8942585E-2,-5.673031E-1,3.3548576E-1,-1.19998865E-1,-9.68785E-1,-3.1916952E-1,6.916239E-1,1.967714E-1,7.77659E-1,-1.8335588E-1,-1.0160837E0,6.0921814E-2,-1.1735561E0,-1.9006887E-1,7.603266E-1,-5.521653E-1,1.0212262E-1,6.902296E-1,-1.1001692E-1,9.214125E-1,4.5443523E-1,-2.642213E-1,-6.908436E-1,-1.1382669E0,-3.8309976E-1,-8.1517674E-2,-3.9417347E-1,2.5049752E-1,8.9240813E-1,5.597141E-2,-3.4844825E-1,1.54172E-1,-1.0449214E-1,3.3953887E-1,-6.73994E-1,8.5615194E-1,1.1058203E0,5.095967E-1,-3.444282E-2,7.731937E-1,-6.7095095E-1,-1.2877837E-1,-1.5576676E-1,-8.6413604E-1,-1.3050729E0,-5.9260166E-1,-2.0649612E-1,-9.22785E-1,-4.1620424E-1,5.184856E-1,2.8605482E-1,-2.3744646E-1,-1.2008683E-1,3.486971E-1,1.3997139E-1,-9.896581E-2,-3.5112843E-1,1.1674206E-1,-6.748191E-2,-2.5996542E-1,3.660194E-1,8.243012E-2,3.651822E-1,2.9514337E-2,-1.5639584E-1,2.486054E-1,1.8805555E-1,-2.8152847E-1,8.581559E-2,3.241733E-1,-5.9994634E-2,-2.5653604E-1,-2.0738654E-1,3.1755334E-3,-1.6608672E-1,1.3606675E-1,-3.559455E-1,-8.926459E-2,-1.02574185E-1,-4.0455693E-1,-2.530446E-1,6.249797E-2,-2.5950223E-1,2.9594847E-3,7.2798416E-2,-3.3598667E-1,-1.3492078E-2,-2.7117443E-1,3.271314E-1,2.613411E-2],"categories":[],"categories_nodes":[],"categories_segments":[],"categories_sizes":[],"default_left":[0,0,0,0,0,0,0,0,0,0,0,0,0,0,0,0,0,0,0,0,0,0,0,0,0,0,0,0,0,0,0,0,0,0,0,0,0,0,0,0,0,0,0,0,0,0,0,0,0,0,0,0,0,0,0,0,0,0,0,0,0,0,0,0,0,0,0,0,0,0,0,0,0,0,0,0,0,0,0,0,0,0,0,0,0,0,0,0,0,0,0],"id":2,"left_children":[1,3,5,7,9,11,13,15,17,19,21,23,-1,25,27,29,31,33,35,-1,37,39,41,43,45,-1,-1,47,49,51,53,-1,-1,55,57,59,61,63,65,67,69,71,73,75,77,79,81,83,85,87,89,-1,-1,-1,-1,-1,-1,-1,-1,-1,-1,-1,-1,-1,-1,-1,-1,-1,-1,-1,-1,-1,-1,-1,-1,-1,-1,-1,-1,-1,-1,-1,-1,-1,-1,-1,-1,-1,-1,-1,-1],"loss_changes":[3.5603058E1,2.644962E1,9.172615E0,1.1986073E1,1.5245751E1,2.194191E0,6.4297657E0,6.2635384E0,8.2427845E0,3.2494526E0,1.2955161E1,5.901642E-1,0E0,3.7357712E-1,4.91769E0,6.018276E0,3.2985296E0,7.4191437E0,7.021925E0,0E0,6.5215683E-1,4.4476886E0,1.2115246E1,9.7841024E-1,1.3779583E0,0E0,0E0,3.48137E0,3.3564868E0,6.399788E0,6.203118E0,0E0,0E0,1.0611482E1,5.718853E0,1.20425105E-1,5.1287518E0,1.0257654E0,2.6708188E0,7.854261E0,2.268777E0,4.6077576E0,1.3130114E1,1.2586935E0,1.2627802E0,2.616768E-1,1.6557152E0,4.083751E0,2.4339752E0,9.722787E-1,3.108398E0,0E0,0E0,0E0,0E0,0E0,0E0,0E0,0E0,0E0,0E0,0E0,0E0,0E0,0E0,0E0,0E0,0E0,0E0,0E0,0E0,0E0,0E0,0E0,0E0,0E0,0E0,0E0,0E0,0E0,0E0,0E0,0E0,0E0,0E0,0E0,0E0,0E0,0E0,0E0,0E0],"parents":[2147483647,0,0,1,1,2,2,3,3,4,4,5,5,6,6,7,7,8,8,9,9,10,10,11,11,13,13,14,14,15,15,16,16,17,17,18,18,20,20,21,21,22,22,23,23,24,24,27,27,28,28,29,29,30,30,33,33,34,34,35,35,36,36,37,37,38,38,39,39,40,40,41,41,42,42,43,43,44,44,45,45,46,46,47,47,48,48,49,49,50,50],"right_children":[2,4,6,8,10,12,14,16,18,20,22,24,-1,26,28,30,32,34,36,-1,38,40,42,44,46,-1,-1,48,50,52,54,-1,-1,56,58,60,62,64,66,68,70,72,74,76,78,80,82,84,86,88,90,-1,-1,-1,-1,-1,-1,-1,-1,-1,-1,-1,-1,-1,-1,-1,-1,-1,-1,-1,-1,-1,-1,-1,-1,-1,-1,-1,-1,-1,-1,-1,-1,-1,-1,-1,-1,-1,-1,-1,-1],"split_conditions":[4.6675763E0,1.8362359E0,-4.8056507E-1,-8.4545225E-1,-4.779528E0,3.80518E0,-4.129083E0,2.7956843E0,3.575446E0,-2.7546744E0,-3.1969936E0,-5.122171E0,6.0921814E-2,5.803114E-1,1.3204E0,-1.6187105E-1,2.218308E0,1.5751086E-1,-1.7606692E0,-1.1001692E-1,7.6466507E-1,1.5389224E0,-1.916241E0,-6.3947076E-1,9.261154E0,-3.8309976E-1,-8.1517674E-2,1.5660536E0,-2.6173034E0,2.6959543E0,1.0593495E0,-3.4844825E-1,1.54172E-1,-1.8943399E0,-4.707997E0,-4.812272E0,7.019123E-1,1.161226E0,1.1713834E0,9.990028E-1,-5.8514214E-1,-1.8005661E0,-1.8178774E0,-1.8573512E0,1.9308609E0,-7.1935987E0,1.6631962E0,-1.0013528E0,-4.4298887E0,-4.213289E0,-1.7975093E-1,2.8605482E-1,-2.3744646E-1,-1.2008683E-1,3.486971E-1,1.3997139E-1,-9.896581E-2,-3.5112843E-1,1.1674206E-1,-6.748191E-2,-2.5996542E-1,3.660194E-1,8.243012E-2,3.651822E-1,2.9514337E-2,-1.5639584E-1,2.486054E-1,1.8805555E-1,-2.8152847E-1,8.581559E-2,3.241733E-1,-5.9994634E-2,-2.5653604E-1,-2.0738654E-1,3.1755334E-3,-1.6608672E-1,1.3606675E-1,-3.559455E-1,-8.926459E-2,-1.02574185E-1,-4.0455693E-1,-2.530446E-1,6.249797E-2,-2.5950223E-1,2.9594847E-3,7.2798416E-2,-3.3598667E-1,-1.3492078E-2,-2.7117443E-1,3.271314E-1,2.613411E-2],"split_indices":[3,0,15,17,10,16,4,5,13,18,18,15,0,2,14,2,6,9,19,0,2,1,16,13,3,0,0,6,6,10,11,0,0,1,11,0,18,15,7,19,14,1,9,12,4,1,4,19,2,6,19,0,0,0,0,0,0,0,0,0,0,0,0,0,0,0,0,0,0,0,0,0,0,0,0,0,0,0,0,0,0,0,0,0,0,0,0,0,0,0,0],"split_type":[0,0,0,0,0,0,0,0,0,0,0,0,0,0,0,0,0,0,0,0,0,0,0,0,0,0,0,0,0,0,0,0,0,0,0,0,0,0,0,0,0,0,0,0,0,0,0,0,0,0,0,0,0,0,0,0,0,0,0,0,0,0,0,0,0,0,0,0,0,0,0,0,0,0,0,0,0,0,0,0,0,0,0,0,0,0,0,0,0,0,0],"sum_hessian":[6.031193E2,5.0894046E2,9.417884E1,2.4438063E2,2.6455984E2,3.486414E1,5.9314697E1,6.738612E1,1.7699452E2,1.6698412E1,2.4786142E2,3.3639313E1,1.2248266E0,6.724144E0,5.2590553E1,6.4227135E1,3.1589875E0,1.4952208E2,2.7472439E1,1.690417E0,1.5007994E1,2.7370304E1,2.2049112E2,1.1003423E1,2.2635891E1,5.6590266E0,1.0651172E0,3.6012203E1,1.657835E1,5.3860218E1,1.0366919E1,1.9531363E0,1.2058513E0,8.024641E1,6.9275665E1,2.646949E0,2.4825489E1,9.202127E0,5.8058667E0,1.1154563E1,1.6215742E1,5.409432E1,1.6639679E2,3.1563609E0,7.847062E0,1.6270428E1,6.365463E0,2.7602793E1,8.409411E0,4.594662E0,1.1983688E1,5.239265E1,1.4675643E0,7.791773E0,2.5751457E0,2.2406565E1,5.7839844E1,1.4846026E0,6.779107E1,1.4450897E0,1.2018595E0,1.4592741E1,1.0232747E1,8.0979595E0,1.1041679E0,1.2224782E0,4.583389E0,6.6190686E0,4.5354943E0,7.0204077E0,9.195334E0,1.5793093E1,3.8301228E1,3.225326E1,1.3414352E2,1.964838E0,1.1915227E0,4.304188E0,3.5428743E0,1.085144E0,1.5185284E1,4.8066964E0,1.5587662E0,6.084914E0,2.151788E1,1.1834562E0,7.225955E0,3.2290328E0,1.3656294E0,4.4954166E0,7.488271E0],"tree_param":{"num_deleted":"0","num_feature":"20","num_nodes":"91","size_leaf_vector":"1"}},{"base_weights":[-7.909257E-3,7.418932E-2,-4.5615742E-1,2.1008356E-1,-1.3969187E-1,7.581001E-1,-5.150825E-1,6.672084E-3,3.7816772E-1,9.731666E-1,-1.9886516E-1,3.272677E-1,-3.4336094E-2,-6.4152944E-1,1.5922677E-2,2.172298E-1,-2.8347474E-1,2.6984E-1,1.0039127E0,3.6778814E-1,1.3925242E-1,2.830255E-1,-2.6918736E-1,-8.165095E-1,-4.1146123E-1,1.4584501E-1,-1.8866606E-1,6.8670136E-1,2.2974782E-2,6.3178855E-1,-3.7374547E-1,7.045536E-1,1.47926E-1,-1.4015351E-1,1.2351507E0,5.1916337E-1,-4.2204213E-1,3.9019686E-1,-3.3703873E-1,-9.073763E-1,-1.9787507E-1,-6.630736E-2,-7.216203E-1,3.2788572E-1,-3.0035207E-1,-1.287327E-1,2.8139406E-1,-9.6590124E-2,1.0475967E-1,-2.3937766E-1,3.627197E-1,2.3028971E-1,-1.3399608E-1,2.5306788E-1,-3.3383995E-1,-1.5008345E-1,6.5306924E-2,-2.416574E-1,3.061173E-1,4.2708454E-1,-5.871984E-2,2.1011801E-1,-2.005673E-1,-1.7707591E-1,4.8589554E-2,1.6036275E-1,-1.7884994E-1,-1.5085216E-1,-1.47335045E-2,-1.3534565E-1,-3.157811E-1,-2.0274936E-1,9.749938E-2,-1.8203016E-1,8.733833E-2,-2.5941473E-1,2.3543071E-2,2.7788648E-1,1.3750914E-2,7.890978E-2,-2.7568135E-1],"categories":[],"categories_nodes":[],"categories_segments":[],"categories_sizes":[],"default_left":[0,0,0,0,0,0,0,0,0,0,0,0,0,0,0,0,0,0,0,0,0,0,0,0,0,0,0,0,0,0,0,0,0,0,0,0,0,0,0,0,0,0,0,0,0,0,0,0,0,0,0,0,0,0,0,0,0,0,0,0,0,0,0,0,0,0,0,0,0,0,0,0,0,0,0,0,0,0,0,0,0],"id":3,"left_children":[1,3,5,7,9,11,13,15,17,19,21,-1,-1,23,25,27,29,31,33,-1,-1,35,37,39,41,43,-1,45,47,49,51,53,55,57,59,61,63,65,67,69,71,73,75,77,79,-1,-1,-1,-1,-1,-1,-1,-1,-1,-1,-1,-1,-1,-1,-1,-1,-1,-1,-1,-1,-1,-1,-1,-1,-1,-1,-1,-1,-1,-1,-1,-1,-1,-1,-1,-1],"loss_changes":[2.1470528E1,1.4364218E1,6.8524284E0,1.0322248E1,1.2851286E1,1.4560771E0,5.8335495E0,8.470958E0,1.0936115E1,7.0146275E-1,6.289224E0,0E0,0E0,2.4849796E0,1.5708772E0,7.310181E0,5.0545034E0,7.437351E0,6.5303802E0,0E0,0E0,4.1875453E0,7.3126116E0,2.000721E0,3.4085722E0,1.3580587E0,0E0,6.9847126E0,6.6227403E0,5.5925846E0,4.812502E0,8.745057E0,5.1917124E0,4.635393E0,5.6968365E0,4.4081564E0,7.372445E-1,2.5168128E0,6.948429E0,1.7473145E0,1.7806387E0,3.3414361E0,2.0032568E0,1.8971112E0,1.9895523E0,0E0,0E0,0E0,0E0,0E0,0E0,0E0,0E0,0E0,0E0,0E0,0E0,0E0,0E0,0E0,0E0,0E0,0E0,0E0,0E0,0E0,0E0,0E0,0E0,0E0,0E0,0E0,0E0,0E0,0E0,0E0,0E0,0E0,0E0,0E0,0E0],"parents":[2147483647,0,0,1,1,2,2,3,3,4,4,5,5,6,6,7,7,8,8,9,9,10,10,13,13,14,14,15,15,16,16,17,17,18,18,21,21,22,22,23,23,24,24,25,25,27,27,28,28,29,29,30,30,31,31,32,32,33,33,34,34,35,35,36,36,37,37,38,38,39,39,40,40,41,41,42,42,43,43,44,44],"right_children":[2,4,6,8,10,12,14,16,18,20,22,-1,-1,24,26,28,30,32,34,-1,-1,36,38,40,42,44,-1,46,48,50,52,54,56,58,60,62,64,66,68,70,72,74,76,78,80,-1,-1,-1,-1,-1,-1,-1,-1,-1,-1,-1,-1,-1,-1,-1,-1,-1,-1,-1,-1,-1,-1,-1,-1,-1,-1,-1,-1,-1,-1,-1,-1,-1,-1,-1,-1],"split_conditions":[4.584419E0,3.914949E0,-4.8759084E0,4.1513813E-1,-4.2802706E0,-2.5416365E0,5.538346E0,-3.4864028E0,1.6569557E0,5.345655E0,-3.1969936E0,3.272677E-1,-3.4336094E-2,2.4752864E-1,8.669352E-1,-2.4847822E0,-4.8766675E0,-2.806703E0,-4.0606833E0,3.6778814E-1,1.3925242E-1,2.8677464E0,-3.5018342E0,2.3462467E0,-2.4466822E-1,2.1688511E0,-1.8866606E-1,-1.7877938E0,-5.139999E-1,-5.283859E0,-3.2890303E0,3.1609094E0,-2.3008702E0,2.0228027E-1,1.8321227E0,1.7189398E0,2.834106E-1,1.0429446E0,1.1257557E0,-3.8006124E0,3.6299846E0,-1.947378E0,3.6146262E0,-1.7975093E-1,-8.042542E0,-1.287327E-1,2.8139406E-1,-9.6590124E-2,1.0475967E-1,-2.3937766E-1,3.627197E-1,2.3028971E-1,-1.3399608E-1,2.5306788E-1,-3.3383995E-1,-1.5008345E-1,6.5306924E-2,-2.416574E-1,3.061173E-1,4.2708454E-1,-5.871984E-2,2.1011801E-1,-2.005673E-1,-1.7707591E-1,4.8589554E-2,1.6036275E-1,-1.7884994E-1,-1.5085216E-1,-1.47335045E-2,-1.3534565E-1,-3.157811E-1,-2.0274936E-1,9.749938E-2,-1.8203016E-1,8.733833E-2,-2.5941473E-1,2.3543071E-2,2.7788648E-1,1.3750914E-2,7.890978E-2,-2.7568135E-1],"split_indices":[3,0,7,14,3,2,2,0,16,0,18,0,0,14,19,14,1,10,8,0,0,6,5,8,10,5,0,15,7,4,18,3,19,18,19,7,13,4,16,2,9,10,13,19,0,0,0,0,0,0,0,0,0,0,0,0,0,0,0,0,0,0,0,0,0,0,0,0,0,0,0,0,0,0,0,0,0,0,0,0,0],"split_type":[0,0,0,0,0,0,0,0,0,0,0,0,0,0,0,0,0,0,0,0,0,0,0,0,0,0,0,0,0,0,0,0,0,0,0,0,0,0,0,0,0,0,0,0,0,0,0,0,0,0,0,0,0,0,0,0,0,0,0,0,0,0,0,0,0,0,0,0,0,0,0,0,0,0,0,0,0,0,0,0,0],"sum_hessian":[5.815102E2,4.9219672E2,8.931345E1,3.0098E2,1.9121669E2,3.584422E0,8.572903E1,1.366496E2,1.6433043E2,8.874271E0,1.8234242E2,2.4136326E0,1.1707895E0,6.9072754E1,1.6656275E1,7.933094E1,5.7318653E1,1.4130006E2,2.3030357E1,4.988232E0,3.886039E0,2.2835428E1,1.5950699E2,3.7785633E1,3.1287123E1,1.450707E1,2.1492052E0,2.24761E1,5.685484E1,4.607184E0,5.2711468E1,2.9901167E1,1.113989E2,3.9384596E0,1.9091896E1,1.7303793E1,5.531635E0,1.4438818E1,1.4506818E2,3.2539413E1,5.2462206E0,1.5382653E1,1.59044695E1,1.0491766E1,4.015304E0,4.001157E0,1.8474945E1,2.7640968E1,2.9213873E1,1.2152387E0,3.391945E0,2.592774E0,5.0118694E1,2.8274345E1,1.6268209E0,1.0224815E1,1.0117409E2,2.6977026E0,1.2407569E0,1.6874416E1,2.2174814E0,1.53689995E1,1.9347937E0,4.2863493E0,1.2452859E0,1.2995157E1,1.4436601E0,9.158363E1,5.348454E1,8.848583E0,2.3690828E1,2.5880032E0,2.6582174E0,5.8458605E0,9.536793E0,1.342303E1,2.4814394E0,2.6292822E0,7.8624835E0,2.4022284E0,1.6130756E0],"tree_param":{"num_deleted":"0","num_feature":"20","num_nodes":"81","size_leaf_vector":"1"}},{"base_weights":[-4.5672785E-3,1.9847083E-1,-1.4384742E-1,2.431306E-1,-6.0104346E-1,1.2695642E-2,-3.7375507E-1,4.2963013E-1,2.5673477E-2,-8.5486376E-1,3.9104262E-1,6.218068E-1,-5.7469256E-2,1.6381228E-1,-4.751457E-1,-1.335375E-1,5.449714E-1,6.7377406E-1,-8.498573E-2,-3.1380233E-1,-1.23185046E-1,2.2051416E-1,-4.206817E-2,-2.5436917E-1,8.39819E-1,-1.8911512E-1,3.1201127E-1,6.132046E-2,2.6947927E-1,-6.093361E-1,-9.603493E-2,3.7753844E-1,-7.8713995E-1,1.417294E-1,8.432492E-1,9.5995456E-1,1.46467965E-2,2.7362636E-1,-2.5534132E-1,2.4982439E-1,-3.0257493E-1,1.1813631E0,-1.2888157E-1,-2.4037601E-1,6.263061E-1,1.12184875E-1,9.928044E-1,-2.1514486E-1,1.4384791E-1,-7.0263904E-1,-2.2473548E-2,-2.15504E-1,3.492182E-1,2.896775E-1,-5.453983E-3,-3.78414E-1,4.883629E-2,-2.165642E-2,1.8383296E-1,-1.5078788E-1,2.6400697E-1,1.1198097E-1,3.6513424E-1,-1.011081E-1,1.3758506E-1,2.1459931E-1,-6.152722E-2,-1.7067209E-1,-1.5629563E-2,1.3768633E-1,4.2471436E-1,-3.2649705E-1,1.8400782E-1,-1.5588962E-1,-3.588357E-2,3.70523E-1,-2.073931E-2,-1.5317881E-1,8.013375E-2,3.572178E-1,-1.3032182E-1,-5.1091466E-2,7.87744E-2,-6.886251E-3,-2.3254177E-1,2.3365103E-1,-1.5672643E-1,-2.900274E-1,-2.9801473E-3],"categories":[],"categories_nodes":[],"categories_segments":[],"categories_sizes":[],"default_left":[0,0,0,0,0,0,0,0,0,0,0,0,0,0,0,0,0,0,0,0,0,0,0,0,0,0,0,0,0,0,0,0,0,0,0,0,0,0,0,0,0,0,0,0,0,0,0,0,0,0,0,0,0,0,0,0,0,0,0,0,0,0,0,0,0,0,0,0,0,0,0,0,0,0,0,0,0,0,0,0,0,0,0,0,0,0,0,0,0],"id":4,"left_children":[1,3,5,7,9,11,13,15,17,19,21,23,25,27,29,31,33,35,37,-1,-1,-1,-1,39,41,43,45,47,-1,49,51,53,55,57,59,61,63,65,67,-1,-1,69,71,73,75,77,79,-1,81,83,85,87,-1,-1,-1,-1,-1,-1,-1,-1,-1,-1,-1,-1,-1,-1,-1,-1,-1,-1,-1,-1,-1,-1,-1,-1,-1,-1,-1,-1,-1,-1,-1,-1,-1,-1,-1,-1,-1],"loss_changes":[1.5953379E1,8.342203E0,1.2046677E1,8.834597E0,3.4647112E0,8.5842285E0,7.466814E0,7.695381E0,7.3554163E0,4.377184E-1,6.913296E-1,4.176346E0,8.827662E0,1.6202116E0,5.7568455E0,7.2290792E0,1.1619358E1,2.8065376E0,5.4342146E0,0E0,0E0,0E0,0E0,4.8582807E0,5.7253036E0,5.732375E0,6.382578E0,1.4268297E0,0E0,4.596876E0,4.928376E0,2.8847916E0,4.4536123E0,4.3468513E0,3.208912E0,1.1163731E0,1.0199108E0,6.228401E0,3.7971313E0,0E0,0E0,1.4752636E0,4.436524E0,4.199337E0,3.5466454E0,3.805839E0,3.541029E0,0E0,7.706405E-1,3.562271E0,5.4501486E0,4.503639E0,0E0,0E0,0E0,0E0,0E0,0E0,0E0,0E0,0E0,0E0,0E0,0E0,0E0,0E0,0E0,0E0,0E0,0E0,0E0,0E0,0E0,0E0,0E0,0E0,0E0,0E0,0E0,0E0,0E0,0E0,0E0,0E0,0E0,0E0,0E0,0E0,0E0],"parents":[2147483647,0,0,1,1,2,2,3,3,4,4,5,5,6,6,7,7,8,8,9,9,10,10,11,11,12,12,13,13,14,14,15,15,16,16,17,17,18,18,23,23,24,24,25,25,26,26,27,27,29,29,30,30,31,31,32,32,33,33,34,34,35,35,36,36,37,37,38,38,41,41,42,42,43,43,44,44,45,45,46,46,48,48,49,49,50,50,51,51],"right_children":[2,4,6,8,10,12,14,16,18,20,22,24,26,28,30,32,34,36,38,-1,-1,-1,-1,40,42,44,46,48,-1,50,52,54,56,58,60,62,64,66,68,-1,-1,70,72,74,76,78,80,-1,82,84,86,88,-1,-1,-1,-1,-1,-1,-1,-1,-1,-1,-1,-1,-1,-1,-1,-1,-1,-1,-1,-1,-1,-1,-1,-1,-1,-1,-1,-1,-1,-1,-1,-1,-1,-1,-1,-1,-1],"split_conditions":[-2.060891E0,4.0226297E0,2.4235703E-1,3.2722545E-1,-6.099515E-1,-2.1114256E0,-3.9857461E0,-2.6268868E0,-1.7231573E0,-2.938594E-1,9.311789E-1,-7.85473E-1,1.8444773E0,3.0977604E0,1.4903358E0,9.257864E-1,-1.5796044E0,-4.0804462E0,-7.5267994E-1,-3.1380233E-1,-1.23185046E-1,2.2051416E-1,-4.206817E-2,-7.5267994E-1,3.1232817E0,3.0408401E0,2.0912385E0,1.9612317E-1,2.6947927E-1,1.8664898E0,1.5296379E0,-1.6198744E0,1.3722821E0,4.882173E-1,-3.7924993E0,-2.754047E0,1.4246361E0,9.3860745E-2,-8.255446E-1,2.4982439E-1,-3.0257493E-1,-2.3386252E-1,-4.487219E-1,-9.687547E-1,-6.5505254E-1,-8.433037E-1,1.992136E0,-2.1514486E-1,-5.1703596E0,-4.1845956E0,3.6964033E0,-9.5351584E-2,3.492182E-1,2.896775E-1,-5.453983E-3,-3.78414E-1,4.883629E-2,-2.165642E-2,1.8383296E-1,-1.5078788E-1,2.6400697E-1,1.1198097E-1,3.6513424E-1,-1.011081E-1,1.3758506E-1,2.1459931E-1,-6.152722E-2,-1.7067209E-1,-1.5629563E-2,1.3768633E-1,4.2471436E-1,-3.2649705E-1,1.8400782E-1,-1.5588962E-1,-3.588357E-2,3.70523E-1,-2.073931E-2,-1.5317881E-1,8.013375E-2,3.572178E-1,-1.3032182E-1,-5.1091466E-2,7.87744E-2,-6.886251E-3,-2.3254177E-1,2.3365103E-1,-1.5672643E-1,-2.900274E-1,-2.9801473E-3],"split_indices":[3,9,11,2,17,17,7,8,10,2,11,6,13,14,8,13,15,3,19,0,0,0,0,19,6,15,4,8,0,16,10,17,15,9,9,6,11,11,16,0,0,15,5,19,8,8,15,0,7,5,3,9,0,0,0,0,0,0,0,0,0,0,0,0,0,0,0,0,0,0,0,0,0,0,0,0,0,0,0,0,0,0,0,0,0,0,0,0,0],"split_type":[0,0,0,0,0,0,0,0,0,0,0,0,0,0,0,0,0,0,0,0,0,0,0,0,0,0,0,0,0,0,0,0,0,0,0,0,0,0,0,0,0,0,0,0,0,0,0,0,0,0,0,0,0,0,0,0,0,0,0,0,0,0,0,0,0,0,0,0,0,0,0,0,0,0,0,0,0,0,0,0,0,0,0,0,0,0,0,0,0],"sum_hessian":[5.621293E2,2.2854245E2,3.335868E2,2.1711084E2,1.143161E1,1.9901987E2,1.3456693E2,1.1634943E2,1.0076141E2,9.212862E0,2.218748E0,1.9745384E1,1.7927449E2,2.1255552E1,1.1331138E2,1.9751686E1,9.659774E1,1.39531145E1,8.68083E1,5.4942956E0,3.7185664E0,1.1139097E0,1.1048384E0,3.900954E0,1.5844431E1,1.3253902E2,4.6735477E1,1.9603413E1,1.6521395E0,8.3240295E1,3.0071081E1,1.1321422E1,8.430265E0,4.169942E1,5.489832E1,9.410746E0,4.542369E0,2.7761635E1,5.904666E1,1.5551902E0,2.3457637E0,1.1551924E1,4.292507E0,1.2536334E2,7.175666E0,3.703094E1,9.7045355E0,1.1419287E0,1.8461483E1,7.1651436E1,1.1588865E1,2.822414E1,1.8469398E0,3.9747248E0,7.3466964E0,5.404342E0,3.025923E0,2.9258814E1,1.2440607E1,1.1231903E0,5.3775127E1,3.6149945E0,5.795751E0,2.669057E0,1.8733119E0,1.4181928E1,1.3579706E1,2.2513456E1,3.6533207E1,3.5541985E0,7.997725E0,1.6689315E0,2.6235757E0,3.6849457E1,8.851389E1,3.4124818E0,3.763184E0,6.91962E0,3.0111322E1,8.668157E0,1.0363787E0,4.94454E0,1.3516943E1,7.033101E0,6.461833E1,4.2381597E0,7.3507056E0,5.268318E0,2.2955822E1],"tree_param":{"num_deleted":"0","num_feature":"20","num_nodes":"89","size_leaf_vector":"1"}},{"base_weights":[-3.831424E-4,1.0148769E-1,-1.5726802E-1,1.58121E-2,3.2918966E-1,1.6513951E-1,-2.6593748E-1,2.2148278E-1,-8.599571E-2,4.6078023E-2,5.815484E-1,4.154416E-1,-4.8112556E-1,-1.4406955E-1,-6.00972E-1,7.570934E-2,8.8284886E-1,-7.9689044E-1,-3.7223853E-2,7.820031E-1,-2.7890917E-2,6.9839346E-1,-3.4932008E-1,6.895913E-1,2.5499448E-2,-9.1758823E-1,-1.07864454E-1,-9.959039E-2,-3.0171174E-1,-1.1037102E0,-4.1229194E-1,5.0397396E-1,-9.6681476E-2,1.1078221E0,-2.095664E-1,-1.0496631E0,-9.181995E-2,-1.2653267E-1,3.5933706E-1,3.30219E-1,2.9404766E-3,-8.311172E-1,6.692252E-2,-2.6568758E-1,7.9034114E-1,-9.675628E-1,5.7273984E-1,-4.3819034E-1,8.514688E-1,5.0506496E-1,-5.1210266E-1,-3.2833892E-1,-1.3389917E-1,1.2736619E-1,-1.19253E-1,-6.4600766E-2,-8.5394394E-1,-1.1865494E0,-4.0947642E-2,-7.0292753E-1,-1.5536676E-1,2.482984E-1,2.6485013E-2,1.267104E-1,-6.262817E-2,3.7205958E-1,-4.632856E-2,-1.7191303E-1,8.030918E-2,-3.8035277E-1,4.0659223E-2,1.794427E-1,-1.8045488E-1,-2.3741104E-1,-1.1043539E-2,1.8576394E-1,-5.068257E-2,6.508683E-2,-3.9825416E-1,-2.6040596E-1,4.091816E-2,-2.0083763E-1,8.871591E-2,2.5706846E-1,-7.547706E-2,-4.6577153E-1,8.29076E-2,3.7155766E-2,2.208777E-1,6.2033344E-2,-2.3074274E-1,1.9226207E-1,3.821716E-1,-8.0811895E-2,2.5189996E-1,-3.274107E-1,1.5114291E-2,1.7881656E-1,-2.9541373E-2,-3.4636518E-1,2.9654095E-2,-3.7440327E-1,-1.12992E-1,-2.5766134E-1,3.440204E-2,-9.5526434E-2,3.2701167E-1],"categories":[],"categories_nodes":[],"categories_segments":[],"categories_sizes":[],"default_left":[0,0,0,0,0,0,0,0,0,0,0,0,0,0,0,0,0,0,0,0,0,0,0,0,0,0,0,0,0,0,0,0,0,0,0,0,0,0,0,0,0,0,0,0,0,0,0,0,0,0,0,0,0,0,0,0,0,0,0,0,0,0,0,0,0,0,0,0,0,0,0,0,0,0,0,0,0,0,0,0,0,0,0,0,0,0,0,0,0,0,0,0,0,0,0,0,0,0,0,0,0,0,0,0,0,0,0],"id":5,"left_children":[1,3,5,7,9,11,13,15,17,19,21,23,25,27,29,31,33,35,37,39,41,43,45,47,49,51,53,55,-1,57,59,61,63,65,67,69,71,73,75,-1,-1,77,79,81,83,85,87,89,91,93,95,-1,-1,-1,-1,97,99,101,-1,103,105,-1,-1,-1,-1,-1,-1,-1,-1,-1,-1,-1,-1,-1,-1,-1,-1,-1,-1,-1,-1,-1,-1,-1,-1,-1,-1,-1,-1,-1,-1,-1,-1,-1,-1,-1,-1,-1,-1,-1,-1,-1,-1,-1,-1,-1,-1],"loss_changes":[8.730549E0,6.456224E0,7.5788813E0,5.0801907E0,6.43909E0,9.069607E0,6.496526E0,7.6759396E0,5.60098E0,2.4026933E0,5.439028E0,4.2650194E0,2.4704008E0,4.481299E0,3.5943413E0,4.9879117E0,3.7738256E0,1.7530866E0,5.464945E0,9.808495E-1,3.155846E0,4.0013123E0,3.9706905E0,4.6605043E0,4.790078E0,1.0639763E-1,1.6545054E0,2.974521E0,0E0,7.2366714E-1,2.3277993E0,2.5321202E0,2.9118965E0,2.2148342E0,7.2619545E-1,2.1223078E0,1.7082418E0,7.4649124E0,4.001874E0,0E0,0E0,2.5628264E0,2.5434341E0,1.2117631E0,2.9406395E0,3.3104641E0,1.3149422E-1,9.2918205E-1,1.0408325E0,2.7638292E0,2.9168105E0,0E0,0E0,0E0,0E0,2.5375495E0,1.5479963E0,3.0280113E-2,0E0,2.0147872E0,4.1255116E0,0E0,0E0,0E0,0E0,0E0,0E0,0E0,0E0,0E0,0E0,0E0,0E0,0E0,0E0,0E0,0E0,0E0,0E0,0E0,0E0,0E0,0E0,0E0,0E0,0E0,0E0,0E0,0E0,0E0,0E0,0E0,0E0,0E0,0E0,0E0,0E0,0E0,0E0,0E0,0E0,0E0,0E0,0E0,0E0,0E0,0E0],"parents":[2147483647,0,0,1,1,2,2,3,3,4,4,5,5,6,6,7,7,8,8,9,9,10,10,11,11,12,12,13,13,14,14,15,15,16,16,17,17,18,18,19,19,20,20,21,21,22,22,23,23,24,24,25,25,26,26,27,27,29,29,30,30,31,31,32,32,33,33,34,34,35,35,36,36,37,37,38,38,41,41,42,42,43,43,44,44,45,45,46,46,47,47,48,48,49,49,50,50,55,55,56,56,57,57,59,59,60,60],"right_children":[2,4,6,8,10,12,14,16,18,20,22,24,26,28,30,32,34,36,38,40,42,44,46,48,50,52,54,56,-1,58,60,62,64,66,68,70,72,74,76,-1,-1,78,80,82,84,86,88,90,92,94,96,-1,-1,-1,-1,98,100,102,-1,104,106,-1,-1,-1,-1,-1,-1,-1,-1,-1,-1,-1,-1,-1,-1,-1,-1,-1,-1,-1,-1,-1,-1,-1,-1,-1,-1,-1,-1,-1,-1,-1,-1,-1,-1,-1,-1,-1,-1,-1,-1,-1,-1,-1,-1,-1,-1],"split_conditions":[3.914949E0,1.5214604E0,-3.058024E0,-2.4213572E0,-1.0475628E0,2.8493383E0,1.2991248E0,1.6326475E0,-3.4233642E0,1.7502204E0,1.9298942E0,-9.744649E-2,-3.451207E0,6.027368E0,-1.44303E0,-1.7763311E0,2.0038857E0,-1.6961485E-1,2.440232E0,1.0750645E0,-1.8041657E0,-3.7038405E0,-1.3104415E0,-2.71397E0,-5.994023E-1,5.255055E0,1.7189398E0,4.445916E0,-3.0171174E-1,3.0437777E0,2.1525388E0,-1.16924E0,-6.361552E0,1.3243015E0,2.3629123E-1,5.9472938E0,2.763267E0,-1.5675936E0,3.3820742E-1,3.30219E-1,2.9404766E-3,-9.249368E-1,-3.4253242E0,2.9766253E-1,3.5578427E0,2.521701E0,2.8047314E0,-2.540616E-1,1.5296379E0,7.1098924E-1,-6.815533E-1,-3.2833892E-1,-1.3389917E-1,1.2736619E-1,-1.19253E-1,-4.2828374E0,2.7822666E0,4.0138817E0,-4.0947642E-2,6.448844E-1,1.1053886E0,2.482984E-1,2.6485013E-2,1.267104E-1,-6.262817E-2,3.7205958E-1,-4.632856E-2,-1.7191303E-1,8.030918E-2,-3.8035277E-1,4.0659223E-2,1.794427E-1,-1.8045488E-1,-2.3741104E-1,-1.1043539E-2,1.8576394E-1,-5.068257E-2,6.508683E-2,-3.9825416E-1,-2.6040596E-1,4.091816E-2,-2.0083763E-1,8.871591E-2,2.5706846E-1,-7.547706E-2,-4.6577153E-1,8.29076E-2,3.7155766E-2,2.208777E-1,6.2033344E-2,-2.3074274E-1,1.9226207E-1,3.821716E-1,-8.0811895E-2,2.5189996E-1,-3.274107E-1,1.5114291E-2,1.7881656E-1,-2.9541373E-2,-3.4636518E-1,2.9654095E-2,-3.7440327E-1,-1.12992E-1,-2.5766134E-1,3.440204E-2,-9.5526434E-2,3.2701167E-1],"split_indices":[0,14,3,3,16,8,18,10,19,14,19,11,3,11,8,17,9,8,13,10,11,8,4,17,19,1,7,6,0,5,18,5,0,19,15,1,12,10,16,0,0,17,16,1,10,11,14,13,10,16,14,0,0,0,0,12,8,16,0,6,13,0,0,0,0,0,0,0,0,0,0,0,0,0,0,0,0,0,0,0,0,0,0,0,0,0,0,0,0,0,0,0,0,0,0,0,0,0,0,0,0,0,0,0,0,0,0],"split_type":[0,0,0,0,0,0,0,0,0,0,0,0,0,0,0,0,0,0,0,0,0,0,0,0,0,0,0,0,0,0,0,0,0,0,0,0,0,0,0,0,0,0,0,0,0,0,0,0,0,0,0,0,0,0,0,0,0,0,0,0,0,0,0,0,0,0,0,0,0,0,0,0,0,0,0,0,0,0,0,0,0,0,0,0,0,0,0,0,0,0,0,0,0,0,0,0,0,0,0,0,0,0,0,0,0,0,0],"sum_hessian":[5.4427545E2,3.30211E2,2.1406444E2,2.4071031E2,8.9500694E1,5.3832138E1,1.602323E2,7.931129E1,1.6139902E2,4.2737602E1,4.6763092E1,3.9060825E1,1.4771311E1,1.1854272E2,4.1689583E1,6.590046E1,1.3410822E1,9.377288E0,1.5202173E2,3.0290642E0,3.9708538E1,4.176978E1,4.9933124E0,2.248456E1,1.6576265E1,6.1369433E0,8.634368E0,1.13784546E2,4.7581744E0,1.0053195E1,3.1636387E1,1.8361694E1,4.753877E1,1.11089325E1,2.3018897E0,6.5428834E0,2.8344045E0,1.2463404E2,2.7387697E1,1.8429437E0,1.1861204E0,3.3724556E0,3.6336082E1,3.472343E0,3.8297436E1,2.959568E0,2.0337443E0,2.608E0,1.987656E1,8.793017E0,7.7832484E0,3.5006368E0,2.6363065E0,2.8781188E0,5.756249E0,1.0977827E2,4.006273E0,9.05122E0,1.0019752E0,1.4029826E1,1.7606562E1,9.766065E0,8.595629E0,7.95054E0,3.958823E1,1.0070296E1,1.038636E0,1.1927917E0,1.109098E0,5.4667826E0,1.076101E0,1.1305212E0,1.7038832E0,1.388975E1,1.10744286E2,1.8241856E1,9.145842E0,1.2648457E0,2.10761E0,1.718184E0,3.4617897E1,1.907779E0,1.5645641E0,3.6164978E1,2.1324582E0,1.8441491E0,1.1154189E0,1.0122817E0,1.0214628E0,1.0116578E0,1.5963421E0,1.4943791E1,4.9327683E0,2.711703E0,6.0813146E0,3.3711977E0,4.4120507E0,4.5441866E0,1.05234085E2,2.8844645E0,1.1218084E0,7.910027E0,1.1411924E0,1.1740119E1,2.2897065E0,1.6226439E1,1.3801227E0],"tree_param":{"num_deleted":"0","num_feature":"20","num_nodes":"107","size_leaf_vector":"1"}},{"base_weights":[-2.3559171E-3,1.982715E-2,-5.149132E-1,-7.64923E-2,1.04692E-1,-6.882203E-1,-1.3063052E-1,7.2627254E-2,-2.3690508E-1,1.5061285E-1,-4.8210847E-1,1.6437521E-2,-7.682124E-1,-1.9675814E-1,4.424695E-2,-1.291024E-2,8.4244144E-1,8.5956216E-2,-3.7714392E-1,8.731267E-2,5.573581E-1,-2.1401517E-2,-8.5435766E-1,-8.5172313E-1,-2.3217414E-1,-9.862289E-2,-2.9257953E-2,8.24173E-2,-6.138234E-1,2.7563182E-1,3.612794E-1,-3.7646484E-1,4.1170794E-1,-2.8450748E-1,-9.5405555E-1,1.3735525E-1,-6.498817E-1,1.0105933E0,2.662815E-1,6.9587916E-1,-4.671819E-1,1.7959224E-2,-1.001484E0,-1.0477365E-1,-2.8182077E-1,-1.8895073E-1,9.149428E-2,-7.733077E-2,9.1220304E-2,-2.820026E-1,1.53590245E-2,-1.2546824E-1,1.5438321E-1,-3.0719738E-3,-2.7723393E-1,-2.662884E-1,1.5914261E-1,-2.1991292E-1,-5.2971542E-2,-1.919255E-2,-3.8758054E-1,1.898794E-1,2.4575742E-2,-2.6931632E-1,1.0098355E-1,3.338943E-1,-3.0974002E-4,-2.7137116E-1,1.305061E-1,2.8156525E-2,3.3263233E-1,-2.520324E-1,-7.353435E-2,-3.3293778E-1,-1.3201061E-1],"categories":[],"categories_nodes":[],"categories_segments":[],"categories_sizes":[],"default_left":[0,0,0,0,0,0,0,0,0,0,0,0,0,0,0,0,0,0,0,0,0,0,0,0,0,0,0,0,0,0,0,0,0,0,0,0,0,0,0,0,0,0,0,0,0,0,0,0,0,0,0,0,0,0,0,0,0,0,0,0,0,0,0,0,0,0,0,0,0,0,0,0,0,0,0],"id":6,"left_children":[1,3,5,7,9,11,13,15,17,19,21,-1,23,25,-1,27,29,31,33,35,37,39,41,43,45,-1,-1,47,49,51,-1,53,55,57,59,61,63,65,67,69,71,-1,73,-1,-1,-1,-1,-1,-1,-1,-1,-1,-1,-1,-1,-1,-1,-1,-1,-1,-1,-1,-1,-1,-1,-1,-1,-1,-1,-1,-1,-1,-1,-1,-1],"loss_changes":[6.0107956E0,4.150835E0,1.3706264E0,5.709556E0,7.3441906E0,9.2646885E-1,1.7708032E-1,8.181973E0,5.233803E0,6.4146314E0,3.3813405E0,0E0,4.0658045E-1,5.8734387E-2,0E0,6.504493E0,2.216136E0,5.5179224E0,4.01871E0,8.146671E0,4.1662664E0,3.4857256E0,1.5312438E0,1.700077E-1,8.744427E-1,0E0,0E0,7.4769874E0,3.419992E0,1.2329738E0,0E0,3.046461E0,3.767963E0,3.288206E0,3.129753E0,5.589754E0,3.739314E0,1.3259106E0,4.7064404E0,9.375317E-1,3.4847033E-1,0E0,8.80394E-2,0E0,0E0,0E0,0E0,0E0,0E0,0E0,0E0,0E0,0E0,0E0,0E0,0E0,0E0,0E0,0E0,0E0,0E0,0E0,0E0,0E0,0E0,0E0,0E0,0E0,0E0,0E0,0E0,0E0,0E0,0E0,0E0],"parents":[2147483647,0,0,1,1,2,2,3,3,4,4,5,5,6,6,7,7,8,8,9,9,10,10,12,12,13,13,15,15,16,16,17,17,18,18,19,19,20,20,21,21,22,22,23,23,24,24,27,27,28,28,29,29,31,31,32,32,33,33,34,34,35,35,36,36,37,37,38,38,39,39,40,40,42,42],"right_children":[2,4,6,8,10,12,14,16,18,20,22,-1,24,26,-1,28,30,32,34,36,38,40,42,44,46,-1,-1,48,50,52,-1,54,56,58,60,62,64,66,68,70,72,-1,74,-1,-1,-1,-1,-1,-1,-1,-1,-1,-1,-1,-1,-1,-1,-1,-1,-1,-1,-1,-1,-1,-1,-1,-1,-1,-1,-1,-1,-1,-1,-1,-1],"split_conditions":[5.464638E0,2.4752864E-1,1.1143272E0,-9.249865E-1,6.2184844E0,-2.2250345E0,2.1806862E0,6.1919193E0,-1.3938456E0,1.6569557E0,-2.4413924E0,1.6437521E-2,2.9776376E-1,-6.3205094E0,4.424695E-2,2.889334E0,-1.2582953E0,-1.5037813E0,1.6308799E0,3.9337003E0,-2.0921786E0,2.530479E0,-2.8593564E0,-1.4742748E0,6.1661935E-1,-9.862289E-2,-2.9257953E-2,-1.6419348E0,1.0215032E0,-3.3363843E-1,3.612794E-1,-1.16924E0,-5.699762E0,-1.6852486E-1,-4.438072E0,-2.036309E0,2.2602224E-1,2.1544583E0,-4.207242E0,4.615372E-2,1.2613961E1,1.7959224E-2,4.3425612E0,-1.0477365E-1,-2.8182077E-1,-1.8895073E-1,9.149428E-2,-7.733077E-2,9.1220304E-2,-2.820026E-1,1.53590245E-2,-1.2546824E-1,1.5438321E-1,-3.0719738E-3,-2.7723393E-1,-2.662884E-1,1.5914261E-1,-2.1991292E-1,-5.2971542E-2,-1.919255E-2,-3.8758054E-1,1.898794E-1,2.4575742E-2,-2.6931632E-1,1.0098355E-1,3.338943E-1,-3.0974002E-4,-2.7137116E-1,1.305061E-1,2.8156525E-2,3.3263233E-1,-2.520324E-1,-7.353435E-2,-3.3293778E-1,-1.3201061E-1],"split_indices":[11,14,2,11,0,18,0,0,17,16,12,0,14,0,0,17,9,9,4,6,2,8,8,13,16,0,0,7,7,19,0,5,1,11,0,17,15,19,8,15,7,0,19,0,0,0,0,0,0,0,0,0,0,0,0,0,0,0,0,0,0,0,0,0,0,0,0,0,0,0,0,0,0,0,0],"split_type":[0,0,0,0,0,0,0,0,0,0,0,0,0,0,0,0,0,0,0,0,0,0,0,0,0,0,0,0,0,0,0,0,0,0,0,0,0,0,0,0,0,0,0,0,0,0,0,0,0,0,0,0,0,0,0,0,0,0,0,0,0,0,0,0,0,0,0,0,0,0,0,0,0,0,0],"sum_hessian":[5.267517E2,5.0582147E2,2.0930227E1,2.3696774E2,2.6885373E2,1.3879714E1,7.0505137E0,1.2309034E2,1.1387741E2,2.500306E2,1.8823141E1,1.3796622E0,1.25000515E1,5.932507E0,1.1180065E0,1.1166587E2,1.1424465E1,3.4602272E1,7.927513E1,2.174105E2,3.2620087E1,8.884681E0,9.93846E0,1.0305595E1,2.1944566E0,1.5534406E0,4.3790665E0,9.712157E1,1.4544305E1,5.137759E0,6.286706E0,1.4236773E1,2.0365501E1,6.959346E1,9.681673E0,2.0435225E2,1.3058259E1,1.1789988E1,2.08301E1,3.1903033E0,5.6943774E0,1.4599091E0,8.478551E0,2.2714522E0,8.034143E0,1.1618137E0,1.0326428E0,3.825116E1,5.8870407E1,9.480646E0,5.0636587E0,1.1240615E0,4.0136976E0,9.142003E0,5.0947695E0,1.163454E0,1.9202047E1,1.2375323E1,5.7218136E1,2.9912167E0,6.690457E0,1.9511366E1,1.8484088E2,1.0508236E1,2.5500236E0,1.0615401E1,1.1745862E0,2.0745254E0,1.8755573E1,1.7971983E0,1.393105E0,1.0865585E0,4.607819E0,6.288737E0,2.1898143E0],"tree_param":{"num_deleted":"0","num_feature":"20","num_nodes":"75","size_leaf_vector":"1"}},{"base_weights":[-5.731123E-3,-3.172189E-1,2.102642E-2,-8.485559E-2,-6.6526544E-1,3.995376E-1,-2.0365915E-3,1.6210681E-1,-5.100246E-1,-7.8409487E-1,6.61529E-2,5.9425807E-1,-1.3419728E-1,7.4994445E-1,-1.2476107E-2,2.8048903E-1,-2.3710144E-1,-8.511561E-1,-1.2888809E-1,-3.3428437E-1,-4.6989676E-1,1.0950667E-1,7.128988E-1,-2.3104867E-1,4.5968525E-2,2.8732497E-1,1.9540545E-2,-4.3396708E-1,4.5495653E-3,-2.9275778E-1,4.7641245E-1,-2.9006585E-1,-8.49531E-2,-1.1363189E-1,1.1408823E-1,4.3887176E-2,-6.9445044E-1,8.9978114E-2,-8.695685E-2,7.973581E-1,6.869037E-3,-7.2415173E-1,2.3568444E-1,1.3705932E-1,-4.726567E-2,1.2645417E-1,-2.0258865E-1,4.897983E-2,2.973995E-1,-1.00623816E-1,1.2318364E-1,-2.7208227E-1,-5.604784E-2,9.4928E-2,3.0063272E-1,-1.5312824E-1,-3.1181368E-1,-8.118643E-2,3.1663814E-1,8.664012E-2,-5.6239367E-2,2.3747507E-1,-1.7790584E-2],"categories":[],"categories_nodes":[],"categories_segments":[],"categories_sizes":[],"default_left":[0,0,0,0,0,0,0,0,0,0,0,0,0,0,0,0,0,0,0,0,0,0,0,0,0,0,0,0,0,0,0,0,0,0,0,0,0,0,0,0,0,0,0,0,0,0,0,0,0,0,0,0,0,0,0,0,0,0,0,0,0,0,0],"id":7,"left_children":[1,3,5,7,9,11,13,15,17,19,-1,21,23,25,27,29,-1,31,33,-1,35,37,39,-1,-1,-1,-1,41,43,45,47,-1,-1,-1,-1,49,51,-1,-1,53,-1,55,57,59,61,-1,-1,-1,-1,-1,-1,-1,-1,-1,-1,-1,-1,-1,-1,-1,-1,-1,-1],"loss_changes":[4.299841E0,3.2439919E0,4.149902E0,2.7726119E0,1.8771925E0,2.9171834E0,3.5340517E0,2.1344259E0,1.145504E0,9.802847E-1,0E0,1.0829697E0,1.6011304E0,8.148215E-1,3.1869254E0,1.9170139E0,0E0,4.933858E-2,8.741501E-1,0E0,1.0869517E0,4.786456E-1,9.1633606E-1,0E0,0E0,0E0,0E0,3.5211987E0,2.9422617E0,1.5554063E0,1.8014629E0,0E0,0E0,0E0,0E0,6.559434E-1,5.243013E-1,0E0,0E0,1.0869646E0,0E0,2.9645205E-1,2.7623632E0,5.9856777E0,3.1579971E0,0E0,0E0,0E0,0E0,0E0,0E0,0E0,0E0,0E0,0E0,0E0,0E0,0E0,0E0,0E0,0E0,0E0,0E0],"parents":[2147483647,0,0,1,1,2,2,3,3,4,4,5,5,6,6,7,7,8,8,9,9,11,11,12,12,13,13,14,14,15,15,17,17,18,18,20,20,21,21,22,22,27,27,28,28,29,29,30,30,35,35,36,36,39,39,41,41,42,42,43,43,44,44],"right_children":[2,4,6,8,10,12,14,16,18,20,-1,22,24,26,28,30,-1,32,34,-1,36,38,40,-1,-1,-1,-1,42,44,46,48,-1,-1,-1,-1,50,52,-1,-1,54,-1,56,58,60,62,-1,-1,-1,-1,-1,-1,-1,-1,-1,-1,-1,-1,-1,-1,-1,-1,-1,-1],"split_conditions":[-2.9255152E0,-1.5884416E-1,-4.618299E0,2.5364509E0,1.8899071E0,3.4617097E0,-4.962718E0,-3.1199353E0,3.5839348E0,1.1934632E0,6.61529E-2,-2.2828684E0,-7.8760034E-1,1.3243015E0,-4.5155525E0,-5.017333E-1,-2.3710144E-1,5.9083766E-1,-1.160846E0,-3.3428437E-1,-2.2552125E0,-2.720904E0,7.6466507E-1,-2.3104867E-1,4.5968525E-2,2.8732497E-1,1.9540545E-2,-3.3772996E-1,-2.8724525E0,-9.867711E-1,-8.255446E-1,-2.9006585E-1,-8.49531E-2,-1.1363189E-1,1.1408823E-1,2.9776376E-1,1.4834709E0,8.9978114E-2,-8.695685E-2,-8.753309E-1,6.869037E-3,9.799961E-1,5.600362E-1,7.7750194E-1,-5.102202E0,1.2645417E-1,-2.0258865E-1,4.897983E-2,2.973995E-1,-1.00623816E-1,1.2318364E-1,-2.7208227E-1,-5.604784E-2,9.4928E-2,3.0063272E-1,-1.5312824E-1,-3.1181368E-1,-8.118643E-2,3.1663814E-1,8.664012E-2,-5.6239367E-2,2.3747507E-1,-1.7790584E-2],"split_indices":[15,7,10,10,9,8,3,15,5,7,0,18,2,19,9,14,0,8,7,0,8,1,2,0,0,0,0,6,1,8,16,0,0,0,0,14,5,0,0,15,0,3,10,4,17,0,0,0,0,0,0,0,0,0,0,0,0,0,0,0,0,0,0],"split_type":[0,0,0,0,0,0,0,0,0,0,0,0,0,0,0,0,0,0,0,0,0,0,0,0,0,0,0,0,0,0,0,0,0,0,0,0,0,0,0,0,0,0,0,0,0,0,0,0,0,0,0,0,0,0,0,0,0,0,0,0,0,0,0],"sum_hessian":[5.140993E2,3.9810078E1,4.742892E2,2.4618227E1,1.519185E1,2.6301647E1,4.4798755E2,1.5964095E1,8.654133E0,1.3496099E1,1.6957506E0,1.9187975E1,7.113671E0,5.1641684E0,4.428234E2,1.4826741E1,1.1373534E0,3.915979E0,4.7381535E0,5.3389964E0,8.157103E0,4.150904E0,1.5037071E1,1.6915001E0,5.422171E0,3.6561465E0,1.5080218E0,1.6242085E1,4.265813E2,3.6507802E0,1.11759615E1,2.6696835E0,1.2462955E0,3.3501556E0,1.3879981E0,2.7255473E0,5.4315553E0,2.9793196E0,1.1715845E0,1.32585745E1,1.778497E0,1.12748785E1,4.967206E0,1.19452965E2,3.0712836E2,1.2377583E0,2.4130218E0,7.7685905E0,3.407371E0,1.3817749E0,1.3437724E0,3.274302E0,2.1572533E0,4.719215E0,8.539359E0,8.280159E0,2.9947195E0,3.4848158E0,1.4823904E0,8.146949E1,3.7983475E1,3.4283507E0,3.0369998E2],"tree_param":{"num_deleted":"0","num_feature":"20","num_nodes":"63","size_leaf_vector":"1"}},{"base_weights":[-4.9490198E-3,9.655444E-2,-7.210828E-2,3.14223E-1,1.9728603E-2,-3.5495478E-1,-2.3277968E-2,5.7043916E-1,7.505406E-2,-1.3031812E-1,2.0881967E-1,-1.5022431E-1,-8.435621E-1,8.575758E-2,-1.7290135E-1,1.7802925E-1,7.956343E-1,-1.3469823E-1,8.443209E-1,-9.880641E-2,-4.009081E-1,1.4711681E-1,3.1746265E-1,-3.556911E-1,3.6302248E-1,-1.0879226E0,1.4199156E-1,1.6616002E-1,-2.6410604E-1,-5.537298E-1,-6.261153E-2,-1.4284936E-1,3.7524527E-1,9.472479E-1,5.572305E-2,1.2384194E-1,-3.5969895E-1,7.126216E-2,2.7687585E-1,1.2675115E-1,-2.6330408E-1,5.1581454E-1,3.2321654E-2,-7.253158E-1,7.47797E-2,-1.1722247E-1,5.772087E-1,-1.3560058E-2,-4.0951863E-1,4.1397607E-1,-2.0505356E-2,-9.7953826E-2,-8.309684E-1,4.705629E-1,-6.7056346E-1,-3.5819605E-1,2.8038517E-2,2.1337278E-1,-3.1329308E-2,7.688132E-2,3.1283066E-1,1.0571962E-1,-9.656549E-2,-2.9898522E-4,1.6558343E-1,-4.4405993E-2,-2.0107083E-1,-3.2930408E-2,1.8321674E-1,-1.7234422E-1,-1.0245755E-2,6.856178E-2,3.065644E-1,-2.4248438E-1,4.0602695E-2,-3.0888492E-1,3.3585068E-2,9.683398E-2,-2.7728972E-1,-6.9969006E-2,2.4298456E-1,-1.4894271E-1,1.469376E-1,9.822054E-2,-7.43036E-2,-1.0119412E-1,1.3484052E-1,-5.029406E-2,-2.8444675E-1,1.8083228E-1,3.159766E-2,3.4419548E-2,-2.3302387E-1,-2.1027207E-1,1.5807625E-2,2.6573667E-1,-4.427942E-3],"categories":[],"categories_nodes":[],"categories_segments":[],"categories_sizes":[],"default_left":[0,0,0,0,0,0,0,0,0,0,0,0,0,0,0,0,0,0,0,0,0,0,0,0,0,0,0,0,0,0,0,0,0,0,0,0,0,0,0,0,0,0,0,0,0,0,0,0,0,0,0,0,0,0,0,0,0,0,0,0,0,0,0,0,0,0,0,0,0,0,0,0,0,0,0,0,0,0,0,0,0,0,0,0,0,0,0,0,0,0,0,0,0,0,0,0,0],"id":8,"left_children":[1,3,5,7,9,11,13,15,17,19,21,23,25,27,29,31,33,35,37,39,-1,41,-1,43,45,47,-1,49,51,53,55,-1,57,59,61,63,65,-1,-1,67,69,71,73,75,77,-1,79,-1,-1,81,83,85,87,89,91,93,95,-1,-1,-1,-1,-1,-1,-1,-1,-1,-1,-1,-1,-1,-1,-1,-1,-1,-1,-1,-1,-1,-1,-1,-1,-1,-1,-1,-1,-1,-1,-1,-1,-1,-1,-1,-1,-1,-1,-1,-1],"loss_changes":[3.4603105E0,3.3741603E0,4.2103567E0,3.1845603E0,4.29661E0,4.364539E0,4.2817426E0,2.0919437E0,4.694799E0,3.0799475E0,3.3537018E0,3.5940661E0,4.7113533E0,4.318537E0,4.610011E0,1.5339394E0,1.7164516E0,1.392434E0,7.7429295E-2,3.1294513E0,0E0,2.6746361E0,0E0,3.867995E0,1.8219334E0,3.2046099E0,0E0,5.752826E0,2.6295142E0,3.2721748E0,2.3379052E0,0E0,1.4652592E0,5.925665E-1,5.329269E-1,6.165276E-1,7.320088E-1,0E0,0E0,4.172538E0,3.444322E0,1.9516108E0,4.4009676E0,3.4246917E0,3.2665489E0,0E0,1.7174473E0,0E0,0E0,3.9290428E0,5.754301E0,3.2167077E0,3.3779907E-1,8.7035716E-2,1.9726963E0,2.9184358E0,2.4878826E0,0E0,0E0,0E0,0E0,0E0,0E0,0E0,0E0,0E0,0E0,0E0,0E0,0E0,0E0,0E0,0E0,0E0,0E0,0E0,0E0,0E0,0E0,0E0,0E0,0E0,0E0,0E0,0E0,0E0,0E0,0E0,0E0,0E0,0E0,0E0,0E0,0E0,0E0,0E0,0E0],"parents":[2147483647,0,0,1,1,2,2,3,3,4,4,5,5,6,6,7,7,8,8,9,9,10,10,11,11,12,12,13,13,14,14,15,15,16,16,17,17,18,18,19,19,21,21,23,23,24,24,25,25,27,27,28,28,29,29,30,30,32,32,33,33,34,34,35,35,36,36,39,39,40,40,41,41,42,42,43,43,44,44,46,46,49,49,50,50,51,51,52,52,53,53,54,54,55,55,56,56],"right_children":[2,4,6,8,10,12,14,16,18,20,22,24,26,28,30,32,34,36,38,40,-1,42,-1,44,46,48,-1,50,52,54,56,-1,58,60,62,64,66,-1,-1,68,70,72,74,76,78,-1,80,-1,-1,82,84,86,88,90,92,94,96,-1,-1,-1,-1,-1,-1,-1,-1,-1,-1,-1,-1,-1,-1,-1,-1,-1,-1,-1,-1,-1,-1,-1,-1,-1,-1,-1,-1,-1,-1,-1,-1,-1,-1,-1,-1,-1,-1,-1,-1],"split_conditions":[-2.060891E0,-1.3941054E0,-1.9985603E0,1.3493545E-1,-7.398593E-2,1.5872072E0,9.3860745E-2,-1.6640642E0,-2.2363565E0,-1.5948874E-1,2.5867865E0,1.2544496E0,2.31162E0,1.7349442E0,-4.6608254E-1,-3.6967173E0,-1.9221345E0,-5.408464E-1,-2.0872126E0,1.7749326E0,-4.009081E-1,-1.3515754E0,3.1746265E-1,-3.9342143E-2,-4.1007404E0,-3.2172427E0,1.4199156E-1,-4.3968973E-1,1.7965606E0,-3.4253242E0,-9.68833E-1,-1.4284936E-1,3.0171375E0,-3.1040077E0,-2.6961055E0,-4.569112E0,-1.0348507E0,7.126216E-2,2.7687585E-1,3.0399045E-1,9.837203E-1,-1.9699354E0,-2.7211287E0,1.0927227E0,2.8439827E0,-1.1722247E-1,-1.8805834E0,-1.3560058E-2,-4.0951863E-1,-2.764736E0,-1.2616063E0,1.7406198E0,-3.5168633E0,1.3470705E0,-1.4391003E0,2.2904723E0,-5.084419E0,2.1337278E-1,-3.1329308E-2,7.688132E-2,3.1283066E-1,1.0571962E-1,-9.656549E-2,-2.9898522E-4,1.6558343E-1,-4.4405993E-2,-2.0107083E-1,-3.2930408E-2,1.8321674E-1,-1.7234422E-1,-1.0245755E-2,6.856178E-2,3.065644E-1,-2.4248438E-1,4.0602695E-2,-3.0888492E-1,3.3585068E-2,9.683398E-2,-2.7728972E-1,-6.9969006E-2,2.4298456E-1,-1.4894271E-1,1.469376E-1,9.822054E-2,-7.43036E-2,-1.0119412E-1,1.3484052E-1,-5.029406E-2,-2.8444675E-1,1.8083228E-1,3.159766E-2,3.4419548E-2,-2.3302387E-1,-2.1027207E-1,1.5807625E-2,2.6573667E-1,-4.427942E-3],"split_indices":[3,12,19,4,4,5,11,5,12,4,14,15,7,18,14,12,12,19,12,0,0,11,0,16,19,9,0,8,10,16,12,0,2,18,2,3,6,0,0,10,12,11,8,5,17,0,9,0,0,7,2,1,14,1,3,10,2,0,0,0,0,0,0,0,0,0,0,0,0,0,0,0,0,0,0,0,0,0,0,0,0,0,0,0,0,0,0,0,0,0,0,0,0,0,0,0,0],"split_type":[0,0,0,0,0,0,0,0,0,0,0,0,0,0,0,0,0,0,0,0,0,0,0,0,0,0,0,0,0,0,0,0,0,0,0,0,0,0,0,0,0,0,0,0,0,0,0,0,0,0,0,0,0,0,0,0,0,0,0,0,0,0,0,0,0,0,0,0,0,0,0,0,0,0,0,0,0,0,0,0,0,0,0,0,0,0,0,0,0,0,0,0,0,0,0,0,0],"sum_hessian":[5.055864E2,2.0114352E2,3.0444287E2,5.166694E1,1.494766E2,4.3897907E1,2.6054498E2,2.4275772E1,2.7391167E1,8.351608E1,6.59605E1,3.1857014E1,1.20408945E1,1.5096129E2,1.0958369E2,9.504474E0,1.4771299E1,2.2170849E1,5.2203183E0,8.24439E1,1.0721848E0,6.258714E1,3.3733644E0,2.2968908E1,8.888106E0,1.0302919E1,1.7379745E0,1.231786E2,2.7782696E1,2.3706156E1,8.5877525E1,1.8739344E0,7.6305394E0,1.2026713E1,2.7445853E0,1.0525719E1,1.1645129E1,1.0599229E0,4.160395E0,3.4865772E1,4.757813E1,1.403057E1,4.855657E1,1.1989318E1,1.097959E1,1.7843424E0,7.103764E0,2.407589E0,7.895331E0,5.239779E1,7.078081E1,2.2392162E1,5.390534E0,2.1171622E0,2.1588995E1,1.9462927E1,6.6414604E1,4.203425E0,3.4271145E0,1.9079452E0,1.0118769E1,1.5743917E0,1.1701937E0,8.921734E0,1.6039845E0,7.802904E0,3.8422253E0,2.3939573E1,1.0926196E1,1.9538631E1,2.8039495E1,9.875955E0,4.1546154E0,4.5537963E0,4.4002773E1,8.6249E0,3.3644176E0,9.338441E0,1.6411487E0,1.5844254E0,5.519339E0,3.601379E0,4.879641E1,2.7786163E1,4.299464E1,1.5846923E1,6.545239E0,1.1742812E0,4.216253E0,1.076955E0,1.0402071E0,2.5618453E0,1.902715E1,1.0227015E1,9.235912E0,2.2202497E0,6.419435E1],"tree_param":{"num_deleted":"0","num_feature":"20","num_nodes":"97","size_leaf_vector":"1"}},{"base_weights":[-3.8766023E-3,6.57259E-2,-7.002506E-2,1.0493338E-1,-1.8315803E-1,-1.1742924E0,-4.9498297E-2,2.9423183E-1,8.8278875E-2,-2.8539526E-1,6.393679E-1,-8.481849E-2,-4.163036E-1,-1.942371E-1,3.724457E-2,1.4893697E-1,-9.337317E-2,-1.1645386E-1,-1.0367576E0,2.911263E-1,-4.654864E-3,-6.7574453E-1,-8.239973E-2,9.34439E-2,-3.8157335E-1,1.0565457E-1,5.580955E-1,-8.047769E-1,3.676625E-3,-2.987169E-1,6.2570286E-1,-4.0936175E-1,-1.904875E-3,-1.0737238E0,1.354025E-1,1.2954353E-1,-2.6530337E-1,-6.1069496E-2,2.6721132E-1,3.0751443E-1,-8.093498E-1,3.57921E-2,-2.530355E-1,-2.6918173E-2,2.0544502E-1,-2.3304535E-2,-3.2092172E-1,-1.5518652E-1,2.9561356E-2,1.9613443E-1,-1.4259464E-1,-3.5470892E-3,2.4641038E-1,-2.1958278E-2,-3.5658205E-1,-1.3920027E-1,2.6414084E-1,1.1473957E-1,-7.7805966E-2,1.148265E-3,-1.9611175E-1,-4.6547962E-4,-1.8335648E-1,5.382711E-2,2.944741E-1,3.042579E-1,-3.650699E-2,5.859226E-2,-3.0967832E-1],"categories":[],"categories_nodes":[],"categories_segments":[],"categories_sizes":[],"default_left":[0,0,0,0,0,0,0,0,0,0,0,0,0,0,0,0,0,0,0,0,0,0,0,0,0,0,0,0,0,0,0,0,0,0,0,0,0,0,0,0,0,0,0,0,0,0,0,0,0,0,0,0,0,0,0,0,0,0,0,0,0,0,0,0,0,0,0,0,0],"id":9,"left_children":[1,3,5,7,9,11,13,-1,15,17,19,-1,-1,21,23,25,27,29,31,-1,-1,33,35,37,39,41,43,45,47,49,51,-1,-1,53,55,57,59,61,63,65,67,-1,-1,-1,-1,-1,-1,-1,-1,-1,-1,-1,-1,-1,-1,-1,-1,-1,-1,-1,-1,-1,-1,-1,-1,-1,-1,-1,-1],"loss_changes":[2.2795649E0,2.3737354E0,5.6954184E0,2.963287E0,2.974527E0,4.8055792E-1,3.149019E0,0E0,2.286873E0,3.7156334E0,8.777689E-1,0E0,0E0,5.002674E0,3.7382429E0,2.6865032E0,3.6106613E0,3.6769912E0,1.8224416E0,0E0,0E0,5.81612E0,3.033515E0,3.761797E0,5.7929525E0,1.9332508E0,1.2597752E0,1.1262431E0,2.3725336E0,3.9089372E0,6.845951E-1,0E0,0E0,1.2804155E0,3.387279E0,3.6903696E0,4.377821E0,2.443387E0,3.953197E0,2.5281541E0,2.862001E0,0E0,0E0,0E0,0E0,0E0,0E0,0E0,0E0,0E0,0E0,0E0,0E0,0E0,0E0,0E0,0E0,0E0,0E0,0E0,0E0,0E0,0E0,0E0,0E0,0E0,0E0,0E0,0E0],"parents":[2147483647,0,0,1,1,2,2,3,3,4,4,5,5,6,6,8,8,9,9,10,10,13,13,14,14,15,15,16,16,17,17,18,18,21,21,22,22,23,23,24,24,25,25,26,26,27,27,28,28,29,29,30,30,33,33,34,34,35,35,36,36,37,37,38,38,39,39,40,40],"right_children":[2,4,6,8,10,12,14,-1,16,18,20,-1,-1,22,24,26,28,30,32,-1,-1,34,36,38,40,42,44,46,48,50,52,-1,-1,54,56,58,60,62,64,66,68,-1,-1,-1,-1,-1,-1,-1,-1,-1,-1,-1,-1,-1,-1,-1,-1,-1,-1,-1,-1,-1,-1,-1,-1,-1,-1,-1,-1],"split_conditions":[1.8362359E0,2.09985E0,2.0696187E0,-5.573456E0,1.3119668E0,-8.17675E-1,-5.017333E-1,2.9423183E-1,2.450316E0,2.8677464E0,4.0946115E-2,-8.481849E-2,-4.163036E-1,-1.4807808E0,3.450901E0,2.4650136E-2,-1.7146589E0,2.027852E0,3.15062E0,2.911263E-1,-4.654864E-3,1.6460477E0,-9.896635E-1,-1.7779194E-1,-6.4455277E-1,1.0722595E1,-2.596165E0,-2.7897937E0,1.5845602E-2,-4.1845956E0,-1.474052E0,-4.0936175E-1,-1.904875E-3,-4.0759444E0,1.7908539E0,-4.2502886E-1,2.1655647E-1,5.6541348E0,1.5007809E0,-1.6866456E0,-2.7974486E0,3.57921E-2,-2.530355E-1,-2.6918173E-2,2.0544502E-1,-2.3304535E-2,-3.2092172E-1,-1.5518652E-1,2.9561356E-2,1.9613443E-1,-1.4259464E-1,-3.5470892E-3,2.4641038E-1,-2.1958278E-2,-3.5658205E-1,-1.3920027E-1,2.6414084E-1,1.1473957E-1,-7.7805966E-2,1.148265E-3,-1.9611175E-1,-4.6547962E-4,-1.8335648E-1,5.382711E-2,2.944741E-1,3.042579E-1,-3.650699E-2,5.859226E-2,-3.0967832E-1],"split_indices":[0,17,0,8,0,10,14,0,5,6,12,0,0,2,6,0,19,5,13,0,0,8,11,6,2,1,5,6,12,5,10,0,0,2,7,1,10,3,13,3,7,0,0,0,0,0,0,0,0,0,0,0,0,0,0,0,0,0,0,0,0,0,0,0,0,0,0,0,0],"split_type":[0,0,0,0,0,0,0,0,0,0,0,0,0,0,0,0,0,0,0,0,0,0,0,0,0,0,0,0,0,0,0,0,0,0,0,0,0,0,0,0,0,0,0,0,0,0,0,0,0,0,0,0,0,0,0,0,0,0,0,0,0,0,0,0,0,0,0,0,0],"sum_hessian":[4.9311685E2,2.402881E2,2.5282877E2,2.0808603E2,3.220207E1,3.5882025E0,2.4924055E2,2.8027658E0,2.0528326E2,2.92228E1,2.9792717E0,1.1419404E0,2.4462621E0,9.293326E1,1.563073E2,1.540292E2,5.1254047E1,2.4801296E1,4.4215016E0,1.658869E0,1.3204025E0,1.6566261E1,7.6367E1,1.3849954E2,1.7807758E1,1.4043199E2,1.3597224E1,5.27732E0,4.5976727E1,2.0391048E1,4.410248E0,3.108417E0,1.3130844E0,1.0896378E1,5.669883E0,3.5510376E1,4.085662E1,7.365464E1,6.48449E1,6.928327E0,1.0879431E1,1.3930249E2,1.1295044E0,2.2723703E0,1.1324854E1,1.7548721E0,3.5224478E0,6.3962545E0,3.9580475E1,2.7666771E0,1.7624372E1,1.2563413E0,3.1539063E0,1.2909001E0,9.605477E0,3.35114E0,2.3187428E0,2.1526808E1,1.3983569E1,2.4718725E1,1.6137896E1,6.736877E1,6.2858744E0,5.8862545E1,5.9823575E0,2.102928E0,4.8253994E0,1.9980569E0,8.881373E0],"tree_param":{"num_deleted":"0","num_feature":"20","num_nodes":"69","size_leaf_vector":"1"}},{"base_weights":[-5.14612E-3,2.602336E-1,-2.136406E-2,-2.833169E-1,3.7757438E-1,-4.77778E-1,-8.620848E-3,3.108616E-1,2.3860903E-1,-7.613719E-1,2.0970944E-1,1.1383238E-2,-2.683575E-1,6.416836E-2,7.182445E-1,-3.254807E-1,-6.2768675E-2,-1.7756552E-2,2.252364E-1,-3.482304E-1,1.7009617E-1,1.934697E-1,-1.9379793E-1,2.7204797E-1,2.5854578E-2,-5.4641392E-2,1.7860283E-1,-4.5584458E-1,3.2132065E-1,-1.06779E-1,-5.730089E-1,-2.774722E-2,1.3708252E-1,1.626487E-2,-4.9816363E-2,1.0235787E-1,-8.539107E-2,-2.6368007E-1,1.9273734E-1,1.1585631E-1,-2.0302643E-1,-1.0605091E-1,8.282316E-2,-3.1651926E-1,-9.109829E-3],"categories":[],"categories_nodes":[],"categories_segments":[],"categories_sizes":[],"default_left":[0,0,0,0,0,0,0,0,0,0,0,0,0,0,0,0,0,0,0,0,0,0,0,0,0,0,0,0,0,0,0,0,0,0,0,0,0,0,0,0,0,0,0,0,0],"id":10,"left_children":[1,3,5,-1,7,9,11,-1,13,15,-1,17,19,21,23,-1,-1,25,27,29,-1,31,-1,-1,-1,33,35,37,39,41,43,-1,-1,-1,-1,-1,-1,-1,-1,-1,-1,-1,-1,-1,-1],"loss_changes":[2.0951056E0,4.3196507E0,2.6623793E0,0E0,2.1565013E0,4.6820097E0,2.3257194E0,0E0,1.8771164E0,1.6485734E0,0E0,2.5964875E0,2.333019E0,1.7735947E0,6.408665E-1,0E0,0E0,2.6682448E0,3.4160674E0,1.5579727E0,0E0,1.2445815E0,0E0,0E0,0E0,3.7660413E0,4.4866753E0,3.6271544E0,3.134087E0,1.5723345E0,3.949576E0,0E0,0E0,0E0,0E0,0E0,0E0,0E0,0E0,0E0,0E0,0E0,0E0,0E0,0E0],"parents":[2147483647,0,0,1,1,2,2,4,4,5,5,6,6,8,8,9,9,11,11,12,12,13,13,14,14,17,17,18,18,19,19,21,21,25,25,26,26,27,27,28,28,29,29,30,30],"right_children":[2,4,6,-1,8,10,12,-1,14,16,-1,18,20,22,24,-1,-1,26,28,30,-1,32,-1,-1,-1,34,36,38,40,42,44,-1,-1,-1,-1,-1,-1,-1,-1,-1,-1,-1,-1,-1,-1],"split_conditions":[-3.2890303E0,-2.8391855E0,-4.0646286E0,-2.833169E-1,2.1248136E0,2.3947241E0,3.9418516E0,3.108616E-1,2.6959543E0,4.865637E0,2.0970944E-1,2.294786E0,4.7784944E0,1.180611E0,1.0610251E0,-3.254807E-1,-6.2768675E-2,1.5826501E0,-2.3008702E0,-1.97298E0,1.7009617E-1,-1.308181E0,-1.9379793E-1,2.7204797E-1,2.5854578E-2,-1.5586389E0,8.697952E-1,1.992136E0,3.9415576E0,7.9349434E-1,8.4340924E-1,-2.774722E-2,1.3708252E-1,1.626487E-2,-4.9816363E-2,1.0235787E-1,-8.539107E-2,-2.6368007E-1,1.9273734E-1,1.1585631E-1,-2.0302643E-1,-1.0605091E-1,8.282316E-2,-3.1651926E-1,-9.109829E-3],"split_indices":[18,0,16,0,0,7,7,0,10,2,0,14,10,2,6,0,0,7,19,13,0,16,0,0,0,3,11,15,9,9,13,0,0,0,0,0,0,0,0,0,0,0,0,0,0],"split_type":[0,0,0,0,0,0,0,0,0,0,0,0,0,0,0,0,0,0,0,0,0,0,0,0,0,0,0,0,0,0,0,0,0,0,0,0,0,0,0,0,0,0,0,0,0],"sum_hessian":[4.8449918E2,2.7037024E1,4.5746216E2,1.7742512E0,2.5262772E1,1.14343405E1,4.4602783E2,3.2766075E0,2.1986166E1,9.498387E0,1.9359527E0,4.1502045E2,3.1007374E1,1.695391E1,5.0322547E0,5.380426E0,4.1179614E0,3.6605807E2,4.8962376E1,2.8833536E1,2.1738377E0,1.4958025E1,1.9958855E0,3.5410407E0,1.4912139E0,3.0877786E2,5.72802E1,5.590513E0,4.3371864E1,1.4612356E1,1.4221181E1,7.484091E0,7.473934E0,1.5643977E2,1.523381E2,4.259387E1,1.4686336E1,4.180018E0,1.4104954E0,4.130071E1,2.0711544E0,8.932593E0,5.6797624E0,7.030949E0,7.1902313E0],"tree_param":{"num_deleted":"0","num_feature":"20","num_nodes":"45","size_leaf_vector":"1"}},{"base_weights":[-4.446446E-3,6.4089326E-3,-3.8186073E-1,-9.629376E-2,4.4751592E-2,-8.506348E-2,-2.2411442E-1,2.5935087E-1,-1.9840162E-1,-4.2611826E-2,1.4593486E-1,1.1771448E-1,-2.3222472E-1,3.3264452E-1,-4.2052937E-1,-3.373514E-1,-1.679139E-1,1.7885473E-2,-2.8151706E-1,-3.98932E-2,2.1903236E-1,-1.06662706E-1,-3.8052104E-2,8.9152384E-1,2.0137681E-1,-1.924201E-1,-7.7888044E-3,-2.3291674E-1,2.3492901E-1,4.529293E-1,-1.087837E-2,3.9410114E-2,-4.4799015E-1,4.1395828E-2,-3.3857182E-1,8.6539495E-1,1.6016506E-1,5.3083602E-2,3.365203E-1,2.0710708E-1,1.54715115E-2,-3.1985775E-2,-1.441306E-1,1.3919522E-1,-1.8392384E-1,1.9595474E-1,-1.2838703E-1,-1.7367112E-2,9.247813E-2,1.2599055E-1,-1.1680941E-1,-1.7491287E-1,1.6032483E-1,6.8332076E-2,-8.626282E-2,3.320338E-1,-4.8190158E-2,-1.0532703E-2,8.069343E-2],"categories":[],"categories_nodes":[],"categories_segments":[],"categories_sizes":[],"default_left":[0,0,0,0,0,0,0,0,0,0,0,0,0,0,0,0,0,0,0,0,0,0,0,0,0,0,0,0,0,0,0,0,0,0,0,0,0,0,0,0,0,0,0,0,0,0,0,0,0,0,0,0,0,0,0,0,0,0,0],"id":11,"left_children":[1,3,5,7,9,11,-1,13,15,17,19,-1,21,23,25,-1,27,29,31,33,35,-1,-1,37,39,-1,-1,41,43,45,47,49,51,53,-1,55,57,-1,-1,-1,-1,-1,-1,-1,-1,-1,-1,-1,-1,-1,-1,-1,-1,-1,-1,-1,-1,-1,-1],"loss_changes":[1.9628198E0,1.839755E0,1.3882234E0,4.6642327E0,3.0123754E0,6.8957734E-1,0E0,1.573418E0,2.613662E0,2.6539178E0,2.152222E0,0E0,4.7679394E-2,1.7665465E0,2.6580828E-1,0E0,2.601787E0,1.8466936E0,1.9993289E0,4.0640297E0,4.1764226E0,0E0,0E0,5.835092E-1,1.6325657E0,0E0,0E0,2.582706E0,3.0062394E0,1.8938079E0,2.103773E0,2.3807387E0,3.5627017E0,2.7142653E0,0E0,2.466013E0,2.2440524E0,0E0,0E0,0E0,0E0,0E0,0E0,0E0,0E0,0E0,0E0,0E0,0E0,0E0,0E0,0E0,0E0,0E0,0E0,0E0,0E0,0E0,0E0],"parents":[2147483647,0,0,1,1,2,2,3,3,4,4,5,5,7,7,8,8,9,9,10,10,12,12,13,13,14,14,16,16,17,17,18,18,19,19,20,20,23,23,24,24,27,27,28,28,29,29,30,30,31,31,32,32,33,33,35,35,36,36],"right_children":[2,4,6,8,10,12,-1,14,16,18,20,-1,22,24,26,-1,28,30,32,34,36,-1,-1,38,40,-1,-1,42,44,46,48,50,52,54,-1,56,58,-1,-1,-1,-1,-1,-1,-1,-1,-1,-1,-1,-1,-1,-1,-1,-1,-1,-1,-1,-1,-1,-1],"split_conditions":[6.027368E0,-1.8923798E0,2.1806862E0,-2.502805E0,1.6831407E-1,3.2009074E-1,-2.2411442E-1,4.6675763E0,-2.3812168E0,2.5159729E0,-2.0624812E0,1.1771448E-1,6.5277845E-1,-4.6197863E0,3.6299846E0,-3.373514E-1,2.9803643E0,-4.2008843E0,-1.5137354E0,1.9424641E0,-1.6466345E0,-1.06662706E-1,-3.8052104E-2,-5.8514214E-1,-6.0578012E0,-1.924201E-1,-7.7888044E-3,1.391146E0,1.6967316E0,3.531582E0,3.6350675E0,4.6308833E-1,1.8436404E0,3.5858536E0,-3.3857182E-1,2.0340116E0,-3.797272E-1,5.3083602E-2,3.365203E-1,2.0710708E-1,1.54715115E-2,-3.1985775E-2,-1.441306E-1,1.3919522E-1,-1.8392384E-1,1.9595474E-1,-1.2838703E-1,-1.7367112E-2,9.247813E-2,1.2599055E-1,-1.1680941E-1,-1.7491287E-1,1.6032483E-1,6.8332076E-2,-8.626282E-2,3.320338E-1,-4.8190158E-2,-1.0532703E-2,8.069343E-2],"split_indices":[11,4,0,12,16,7,0,3,12,6,11,0,0,12,9,0,5,2,14,19,11,0,0,14,0,0,0,5,9,9,12,1,15,16,0,2,14,0,0,0,0,0,0,0,0,0,0,0,0,0,0,0,0,0,0,0,0,0,0],"split_type":[0,0,0,0,0,0,0,0,0,0,0,0,0,0,0,0,0,0,0,0,0,0,0,0,0,0,0,0,0,0,0,0,0,0,0,0,0,0,0,0,0,0,0,0,0,0,0,0,0,0,0,0,0,0,0,0,0,0,0],"sum_hessian":[4.7749265E2,4.6509827E2,1.239437E1,1.2602438E2,3.3907388E2,7.517573E0,4.876797E0,2.7767921E1,9.825646E1,1.822741E2,1.567998E2,1.3785884E0,6.1389847E0,2.552677E1,2.2411509E0,1.9878898E0,9.626857E1,1.4618198E2,3.6092117E1,4.4394527E1,1.1240527E2,1.7349877E0,4.403997E0,3.7536705E0,2.17731E1,1.0357668E0,1.2053841E0,8.325616E1,1.3012418E1,8.151202E0,1.3803078E2,1.258807E1,2.3504045E1,4.2205147E1,2.1893787E0,8.239113E0,1.0416616E2,1.3455813E0,2.4080892E0,4.2599134E0,1.7513187E1,5.6074585E1,2.7181568E1,1.0601664E1,2.4107544E0,6.852017E0,1.2991856E0,1.2102178E2,1.700899E1,6.6798863E0,5.9081836E0,2.1020803E1,2.483243E0,2.7136858E1,1.506829E1,6.6062245E0,1.6328883E0,3.751668E1,6.6649475E1],"tree_param":{"num_deleted":"0","num_feature":"20","num_nodes":"59","size_leaf_vector":"1"}},{"base_weights":[-3.5918772E-3,-6.091548E-2,5.115976E-2,-8.2735497E-1,-4.450567E-2,-4.3028215E-1,7.171619E-2,-3.1949088E-1,9.717079E-3,-1.2719436E-1,1.0611054E-1,3.4500904E-2,-5.421863E-1,6.8004155E-1,5.5434823E-2,-8.951938E-2,-7.076446E-1,2.2083105E-1,-1.7721201E-1,-2.7442297E-1,-3.213174E-1,3.1971902E-1,-2.778917E-2,7.9596776E-1,4.190821E-2,-1.000455E-3,-3.2491386E-1,-1.0862156E-1,-3.5061097E-1,2.8114504E-1,-6.009142E-1,1.5235032E-1,-5.948317E-1,-1.22925386E-1,9.625109E-3,3.320719E-1,-1.6655246E-2,1.4250313E-1,-2.1499231E-2,9.481852E-2,-2.7818942E-2,5.86036E-2,-1.4767066E-1,-9.876998E-3,-3.634088E-2,2.2052512E-2,1.917864E-1,-2.4123415E-2,-2.2335406E-1,-1.0753515E-1,1.5064886E-1,-2.3301463E-1,1.4657278E-1,2.6875852E-2,2.3861302E-1,-2.413245E-1,7.2334753E-3],"categories":[],"categories_nodes":[],"categories_segments":[],"categories_sizes":[],"default_left":[0,0,0,0,0,0,0,0,0,0,0,0,0,0,0,0,0,0,0,0,0,0,0,0,0,0,0,0,0,0,0,0,0,0,0,0,0,0,0,0,0,0,0,0,0,0,0,0,0,0,0,0,0,0,0,0,0],"id":12,"left_children":[1,3,5,7,9,11,13,-1,-1,15,17,-1,19,21,23,25,27,29,31,-1,33,-1,-1,35,37,39,41,43,-1,45,47,49,51,-1,-1,-1,-1,53,55,-1,-1,-1,-1,-1,-1,-1,-1,-1,-1,-1,-1,-1,-1,-1,-1,-1,-1],"loss_changes":[1.4846989E0,2.86936E0,2.425756E0,1.012367E0,2.844127E0,6.7573E-1,2.269394E0,0E0,0E0,3.1553137E0,2.6750958E0,0E0,4.0678215E-1,1.8817511E0,2.2500331E0,2.9034348E0,2.31067E0,3.0520458E0,3.383946E0,0E0,2.283997E-1,0E0,0E0,1.1293726E0,1.4377093E0,3.0039098E0,3.4110684E0,6.927401E-4,0E0,4.0336637E0,2.6126003E-1,2.712028E0,2.4994206E0,0E0,0E0,0E0,0E0,2.937569E0,4.9769096E0,0E0,0E0,0E0,0E0,0E0,0E0,0E0,0E0,0E0,0E0,0E0,0E0,0E0,0E0,0E0,0E0,0E0,0E0],"parents":[2147483647,0,0,1,1,2,2,3,3,4,4,5,5,6,6,9,9,10,10,12,12,13,13,14,14,15,15,16,16,17,17,18,18,20,20,23,23,24,24,25,25,26,26,27,27,29,29,30,30,31,31,32,32,37,37,38,38],"right_children":[2,4,6,8,10,12,14,-1,-1,16,18,-1,20,22,24,26,28,30,32,-1,34,-1,-1,36,38,40,42,44,-1,46,48,50,52,-1,-1,-1,-1,54,56,-1,-1,-1,-1,-1,-1,-1,-1,-1,-1,-1,-1,-1,-1,-1,-1,-1,-1],"split_conditions":[-1.6961485E-1,-3.794004E0,-4.5155525E0,1.450911E0,1.0908853E0,-1.6021945E0,-5.514538E0,-3.1949088E-1,9.717079E-3,4.0226297E0,-1.5140675E0,3.4500904E-2,2.2068365E0,1.7903222E0,-1.1937358E-1,1.901945E0,-1.1004537E0,3.5578427E0,-8.7801725E-1,-2.7442297E-1,2.5724483E0,3.1971902E-1,-2.778917E-2,1.214546E0,-2.060891E0,-1.4725537E0,-2.1769845E0,9.551875E-1,-3.5061097E-1,3.0399045E-1,-1.3941054E0,-7.6931685E-1,3.697907E0,-1.22925386E-1,9.625109E-3,3.320719E-1,-1.6655246E-2,3.3463564E0,-1.8138804E0,9.481852E-2,-2.7818942E-2,5.86036E-2,-1.4767066E-1,-9.876998E-3,-3.634088E-2,2.2052512E-2,1.917864E-1,-2.4123415E-2,-2.2335406E-1,-1.0753515E-1,1.5064886E-1,-2.3301463E-1,1.4657278E-1,2.6875852E-2,2.3861302E-1,-2.413245E-1,7.2334753E-3],"split_indices":[8,7,9,13,15,15,4,0,0,9,8,0,5,8,8,6,15,10,5,0,13,0,0,11,3,9,17,2,0,10,12,19,6,0,0,0,0,6,3,0,0,0,0,0,0,0,0,0,0,0,0,0,0,0,0,0,0],"split_type":[0,0,0,0,0,0,0,0,0,0,0,0,0,0,0,0,0,0,0,0,0,0,0,0,0,0,0,0,0,0,0,0,0,0,0,0,0,0,0,0,0,0,0,0,0,0,0,0,0,0,0,0,0,0,0,0,0],"sum_hessian":[4.7105783E2,2.3006886E2,2.4098895E2,3.7867322E0,2.2628214E2,9.052113E0,2.3193684E2,2.7797632E0,1.006969E0,1.4618288E2,8.0099266E1,1.5366504E0,7.515462E0,4.983115E0,2.2695372E2,1.3835684E2,7.8260326E0,5.717075E1,2.2928516E1,1.6279333E0,5.8875284E0,3.070941E0,1.9121746E0,3.0335464E0,2.2392018E2,1.0127654E2,3.708029E1,3.9411495E0,3.8848834E0,5.387438E1,3.2963734E0,1.3170378E1,9.758139E0,4.581595E0,1.3059335E0,2.002367E0,1.0311794E0,8.60909E1,1.3782928E2,2.2176828E1,7.909972E1,8.982668E0,2.8097624E1,1.0742233E0,2.8669262E0,3.4865833E1,1.9008545E1,1.0500911E0,2.2462823E0,5.343312E0,7.827066E0,8.59781E0,1.160329E0,8.068815E1,5.402748E0,6.6717257E0,1.3115756E2],"tree_param":{"num_deleted":"0","num_feature":"20","num_nodes":"57","size_leaf_vector":"1"}},{"base_weights":[-3.7922054E-3,1.1051788E-2,-1.8450853E-1,8.947229E-2,-2.5919754E-2,4.7669208E-1,-2.7860504E-1,-2.3502076E-1,1.6023627E-1,-4.2757776E-2,5.754344E-1,2.285919E-1,-3.8166605E-2,-8.538976E-2,-6.598453E-1,2.080973E-1,-4.7738105E-1,-4.245015E-2,2.517839E-1,1.1263689E-2,-1.5296842E-1,8.2548875E-1,-5.781292E-2,1.521908E-1,-3.712371E-1,-7.809936E-1,5.362497E-2,4.552173E-1,-1.6520566E-1,-2.2055161E-1,-9.9310356E-1,2.2392869E-1,-2.512262E-1,4.2301905E-1,9.122267E-3,-1.6787721E-1,7.5942926E-2,2.0143002E-1,-2.4070239E-1,8.321978E-2,2.9707986E-1,-3.2031864E-1,4.790936E-1,-2.6386276E-1,-1.738674E-1,-8.904697E-1,-1.0386044E-2,2.3345383E-1,-1.9054455E-1,-1.5527281E-1,1.4669251E-1,-7.184763E-2,-3.5931727E-1,1.8023589E-1,-4.502632E-2,2.7494082E-2,-1.8502869E-1,1.7953338E-1,-2.2976402E-2,3.049594E-2,-2.53221E-1,-6.5594367E-3,-1.7729284E-1,3.23689E-2,-1.8506634E-1,1.7624567E-3,2.2625197E-1,-1.4575607E-1,-3.0238826E-2,-1.7686343E-1,-1.005999E-2,2.599808E-1,-9.6786946E-2,6.954674E-2,-8.4615126E-2,-2.9802623E-1,-6.573471E-2],"categories":[],"categories_nodes":[],"categories_segments":[],"categories_sizes":[],"default_left":[0,0,0,0,0,0,0,0,0,0,0,0,0,0,0,0,0,0,0,0,0,0,0,0,0,0,0,0,0,0,0,0,0,0,0,0,0,0,0,0,0,0,0,0,0,0,0,0,0,0,0,0,0,0,0,0,0,0,0,0,0,0,0,0,0,0,0,0,0,0,0,0,0,0,0,0,0],"id":13,"left_children":[1,3,5,7,9,11,13,15,17,19,21,-1,-1,23,25,27,29,31,33,35,37,39,-1,41,43,45,-1,47,-1,49,51,53,55,57,59,61,63,65,67,-1,-1,69,71,-1,73,75,-1,-1,-1,-1,-1,-1,-1,-1,-1,-1,-1,-1,-1,-1,-1,-1,-1,-1,-1,-1,-1,-1,-1,-1,-1,-1,-1,-1,-1,-1,-1],"loss_changes":[1.2543862E0,1.2558616E0,2.3410444E0,3.2237258E0,3.0076613E0,9.2229235E-1,2.2788742E0,2.8106642E0,2.1353803E0,1.7134923E0,1.7136569E0,0E0,0E0,1.5633159E0,1.2077842E0,2.0550282E0,1.9828367E0,2.0851855E0,3.2796907E0,2.259071E0,2.9911308E0,2.9382896E-1,0E0,2.1346536E0,8.8660276E-1,7.350588E-1,0E0,3.2431555E0,0E0,2.8627203E0,5.2133703E-1,2.4241295E0,2.6789806E0,4.1044073E0,2.7474637E0,3.1834824E0,3.2352211E0,2.0843718E0,2.5685453E0,0E0,0E0,4.3146968E-1,2.759335E0,0E0,4.4765738E-1,3.4450674E-1,0E0,0E0,0E0,0E0,0E0,0E0,0E0,0E0,0E0,0E0,0E0,0E0,0E0,0E0,0E0,0E0,0E0,0E0,0E0,0E0,0E0,0E0,0E0,0E0,0E0,0E0,0E0,0E0,0E0,0E0,0E0],"parents":[2147483647,0,0,1,1,2,2,3,3,4,4,5,5,6,6,7,7,8,8,9,9,10,10,13,13,14,14,15,15,16,16,17,17,18,18,19,19,20,20,21,21,23,23,24,24,25,25,27,27,29,29,30,30,31,31,32,32,33,33,34,34,35,35,36,36,37,37,38,38,41,41,42,42,44,44,45,45],"right_children":[2,4,6,8,10,12,14,16,18,20,22,-1,-1,24,26,28,30,32,34,36,38,40,-1,42,44,46,-1,48,-1,50,52,54,56,58,60,62,64,66,68,-1,-1,70,72,-1,74,76,-1,-1,-1,-1,-1,-1,-1,-1,-1,-1,-1,-1,-1,-1,-1,-1,-1,-1,-1,-1,-1,-1,-1,-1,-1,-1,-1,-1,-1,-1,-1],"split_conditions":[6.295627E0,-1.9674225E0,-3.1040077E0,-1.8403281E0,3.3573048E0,2.9575706E0,-1.31159E-1,-2.502805E0,-1.8387719E0,1.7932489E0,-1.4180926E-2,2.285919E-1,-3.8166605E-2,1.083828E0,7.3929505E0,-1.984387E0,-3.2787275E-1,-4.479157E-1,1.0927227E0,-2.5518088E0,-3.0002303E0,-2.2938323E0,-5.781292E-2,-1.9031942E0,-2.2247756E0,8.405131E0,5.362497E-2,2.5548825E0,-1.6520566E-1,-7.520808E-1,-6.199716E-1,4.1712713E0,-7.393751E-1,3.2893522E0,2.5596828E0,-3.318906E-2,3.1297913E0,5.1111704E-1,-5.9920865E-1,8.321978E-2,2.9707986E-1,8.063559E0,3.0171375E0,-2.6386276E-1,8.9193183E-1,5.518751E0,-1.0386044E-2,2.3345383E-1,-1.9054455E-1,-1.5527281E-1,1.4669251E-1,-7.184763E-2,-3.5931727E-1,1.8023589E-1,-4.502632E-2,2.7494082E-2,-1.8502869E-1,1.7953338E-1,-2.2976402E-2,3.049594E-2,-2.53221E-1,-6.5594367E-3,-1.7729284E-1,3.23689E-2,-1.8506634E-1,1.7624567E-3,2.2625197E-1,-1.4575607E-1,-3.0238826E-2,-1.7686343E-1,-1.005999E-2,2.599808E-1,-9.6786946E-2,6.954674E-2,-8.4615126E-2,-2.9802623E-1,-6.573471E-2],"split_indices":[0,1,18,10,14,19,6,12,14,6,2,0,0,14,0,2,19,19,5,6,12,10,0,15,11,3,0,3,0,19,16,7,17,12,9,16,7,7,18,0,0,0,2,0,7,8,0,0,0,0,0,0,0,0,0,0,0,0,0,0,0,0,0,0,0,0,0,0,0,0,0,0,0,0,0,0,0],"split_type":[0,0,0,0,0,0,0,0,0,0,0,0,0,0,0,0,0,0,0,0,0,0,0,0,0,0,0,0,0,0,0,0,0,0,0,0,0,0,0,0,0,0,0,0,0,0,0,0,0,0,0,0,0,0,0,0,0,0,0,0,0,0,0,0,0,0,0,0,0,0,0,0,0,0,0,0,0],"sum_hessian":[4.658491E2,4.313564E2,3.4492664E1,1.3775137E2,2.9360507E2,3.7906199E0,3.0702044E1,2.4246445E1,1.1350492E2,2.8651157E2,7.0934763E0,2.3967183E0,1.3939013E0,2.1187862E1,9.514183E0,8.622648E0,1.5623797E1,3.5482655E1,7.802227E1,1.9287077E2,9.364081E1,5.2951045E0,1.7983718E0,1.1826176E1,9.361686E0,8.373226E0,1.1409566E0,6.806108E0,1.8165406E0,1.1382817E1,4.2409797E0,1.5558663E1,1.992399E1,4.5307564E1,3.2714706E1,5.074042E1,1.4213034E2,1.8324339E1,7.5316475E1,1.8442296E0,3.450875E0,4.8443017E0,6.981874E0,1.651667E0,7.710019E0,7.1337976E0,1.2394284E0,5.4717193E0,1.3343885E0,8.214549E0,3.1682684E0,1.3690886E0,2.8718908E0,7.4478884E0,8.110775E0,1.0667318E1,9.256671E0,3.338674E1,1.192082E1,3.0308525E1,2.4061809E0,3.8504208E1,1.2236214E1,1.3667133E2,5.459021E0,1.4282099E1,4.042239E0,2.6466965E1,4.8849506E1,1.954124E0,2.890178E0,4.65227E0,2.329604E0,1.3825473E0,6.3274717E0,5.769349E0,1.3644484E0],"tree_param":{"num_deleted":"0","num_feature":"20","num_nodes":"77","size_leaf_vector":"1"}},{"base_weights":[-5.0056414E-3,3.624323E-2,-6.0464337E-2,-3.0049963E-2,1.19947895E-1,-1.0669073E-1,1.9614959E-1,-2.2837874E-1,7.682125E-2,4.5512265E-1,6.2174797E-2,-4.5047486E-1,-7.4625805E-2,3.7964222E-1,-3.5169107E-1,-4.0182427E-2,-5.5762106E-1,1.7908901E-2,4.949312E-1,9.545067E-1,1.3555956E-1,2.8041893E-1,-6.745818E-2,-7.928078E-1,-1.05782025E-1,-4.0890623E-2,-3.9005408E-1,5.1985335E-1,-3.3631074E-1,-4.9776766E-1,1.9843377E-2,-6.021545E-1,1.821548E-1,3.3609033E-1,-7.204205E-1,8.137484E-2,-4.7195476E-1,2.0375845E-1,2.7057603E-1,1.4303671E-2,1.1155088E0,-2.0377482E-1,5.6874716E-1,-5.162148E-1,3.7398154E-1,5.299831E-1,-1.355408E-1,3.6540158E-2,-3.1873178E-1,2.297774E-1,-4.3781093E-1,-9.417303E-2,3.1565875E-1,-9.462957E-1,-3.283756E-2,6.182318E-1,1.9438973E-2,2.3507874E-1,-2.6925823E-1,-2.4104603E-1,-6.294835E-2,-2.8049114E-1,2.6137276E-2,1.09610856E-1,-1.5090516E-1,2.3503217E-1,-9.724821E-2,-2.5195348E-1,5.7625283E-2,3.8954828E-2,-1.3266866E-1,5.940232E-2,-2.2928087E-1,-2.5635658E-2,1.3928877E-1,3.9335045E-1,8.113568E-2,-1.9160348E-1,7.3841505E-2,-9.097023E-2,2.616328E-1,-2.7323237E-1,-1.33549785E-2,5.7196647E-2,2.3762189E-1,-6.1530955E-2,2.1726272E-1,-8.727548E-2,3.111678E-2,-1.001391E-1,2.7149576E-1,-1.8469632E-1,-4.9532246E-2,-1.6432075E-2,-1.1414053E-1,2.888812E-1,1.9593671E-2,-3.5110718E-1,-6.0488433E-3,-6.603564E-2,2.0025331E-1,6.306664E-2,2.4401562E-1,-8.303416E-2,1.0274065E-1],"categories":[],"categories_nodes":[],"categories_segments":[],"categories_sizes":[],"default_left":[0,0,0,0,0,0,0,0,0,0,0,0,0,0,0,0,0,0,0,0,0,0,0,0,0,0,0,0,0,0,0,0,0,0,0,0,0,0,0,0,0,0,0,0,0,0,0,0,0,0,0,0,0,0,0,0,0,0,0,0,0,0,0,0,0,0,0,0,0,0,0,0,0,0,0,0,0,0,0,0,0,0,0,0,0,0,0,0,0,0,0,0,0,0,0,0,0,0,0,0,0,0,0,0,0],"id":14,"left_children":[1,3,5,7,9,11,13,15,17,19,21,23,25,27,29,31,33,35,37,39,41,43,45,47,49,51,53,55,57,59,-1,61,63,65,67,69,71,73,-1,-1,75,77,79,81,83,85,87,-1,-1,89,91,93,95,97,99,101,103,-1,-1,-1,-1,-1,-1,-1,-1,-1,-1,-1,-1,-1,-1,-1,-1,-1,-1,-1,-1,-1,-1,-1,-1,-1,-1,-1,-1,-1,-1,-1,-1,-1,-1,-1,-1,-1,-1,-1,-1,-1,-1,-1,-1,-1,-1,-1,-1],"loss_changes":[1.0534836E0,1.4694849E0,2.3505898E0,3.1590693E0,2.2363753E0,1.8079709E0,3.1824372E0,3.209049E0,2.381991E0,2.5893972E0,2.8739827E0,1.5745049E0,1.6228486E0,2.5038636E0,5.290843E-1,4.3905826E0,2.9906049E0,2.7156525E0,1.2323301E0,8.932495E-1,1.8143221E0,3.0104148E0,2.6797945E0,1.830298E0,1.009397E0,2.6940713E0,2.9022465E0,9.624572E-1,3.4729884E0,3.7194836E-1,0E0,2.3628218E0,3.3618994E0,1.3151256E0,1.9373684E0,2.0140707E0,2.1144624E0,6.619116E-1,0E0,0E0,5.48223E-1,1.5689964E0,1.6767725E0,7.770361E-1,2.4861188E0,1.1140711E0,2.199541E0,0E0,0E0,2.0953915E0,1.1388707E-1,1.3641242E0,2.9289384E0,1.1669178E0,1.4619014E0,1.1435909E0,5.0476915E-1,0E0,0E0,0E0,0E0,0E0,0E0,0E0,0E0,0E0,0E0,0E0,0E0,0E0,0E0,0E0,0E0,0E0,0E0,0E0,0E0,0E0,0E0,0E0,0E0,0E0,0E0,0E0,0E0,0E0,0E0,0E0,0E0,0E0,0E0,0E0,0E0,0E0,0E0,0E0,0E0,0E0,0E0,0E0,0E0,0E0,0E0,0E0,0E0],"parents":[2147483647,0,0,1,1,2,2,3,3,4,4,5,5,6,6,7,7,8,8,9,9,10,10,11,11,12,12,13,13,14,14,15,15,16,16,17,17,18,18,19,19,20,20,21,21,22,22,23,23,24,24,25,25,26,26,27,27,28,28,29,29,31,31,32,32,33,33,34,34,35,35,36,36,37,37,40,40,41,41,42,42,43,43,44,44,45,45,46,46,49,49,50,50,51,51,52,52,53,53,54,54,55,55,56,56],"right_children":[2,4,6,8,10,12,14,16,18,20,22,24,26,28,30,32,34,36,38,40,42,44,46,48,50,52,54,56,58,60,-1,62,64,66,68,70,72,74,-1,-1,76,78,80,82,84,86,88,-1,-1,90,92,94,96,98,100,102,104,-1,-1,-1,-1,-1,-1,-1,-1,-1,-1,-1,-1,-1,-1,-1,-1,-1,-1,-1,-1,-1,-1,-1,-1,-1,-1,-1,-1,-1,-1,-1,-1,-1,-1,-1,-1,-1,-1,-1,-1,-1,-1,-1,-1,-1,-1,-1,-1],"split_conditions":[2.4235703E-1,8.491293E-2,1.8664898E0,-1.4281698E0,6.244925E-1,-2.4761395E0,6.157015E0,2.5328925E-1,-1.6852486E-1,-1.7427464E0,-2.9537146E0,3.535403E-1,1.7320975E0,7.856364E-1,2.37298E0,-1.1650612E0,-2.7871172E0,2.9763825E0,1.0939514E-1,-1.1052793E0,9.6758664E-1,-3.126609E0,-1.7606692E0,-2.8149238E0,5.711725E0,8.6488926E-1,-2.7870935E-1,5.523534E0,-1.0516063E0,-3.1756666E-1,1.9843377E-2,-3.4192267E-1,-2.223739E0,1.1744033E0,2.9803643E0,2.4233258E0,-4.4878902E0,-1.8178774E0,2.7057603E-1,1.4303671E-2,5.1111704E-1,1.6536825E0,-9.0543854E-1,3.6069974E-1,2.3862252E0,-1.8923798E0,7.579829E-1,3.6540158E-2,-3.1873178E-1,5.1147156E0,1.0360672E1,1.74742E0,-9.7829336E-1,-1.0903361E-1,-1.0311269E-1,-5.157511E-1,1.4834709E0,2.3507874E-1,-2.6925823E-1,-2.4104603E-1,-6.294835E-2,-2.8049114E-1,2.6137276E-2,1.09610856E-1,-1.5090516E-1,2.3503217E-1,-9.724821E-2,-2.5195348E-1,5.7625283E-2,3.8954828E-2,-1.3266866E-1,5.940232E-2,-2.2928087E-1,-2.5635658E-2,1.3928877E-1,3.9335045E-1,8.113568E-2,-1.9160348E-1,7.3841505E-2,-9.097023E-2,2.616328E-1,-2.7323237E-1,-1.33549785E-2,5.7196647E-2,2.3762189E-1,-6.1530955E-2,2.1726272E-1,-8.727548E-2,3.111678E-2,-1.001391E-1,2.7149576E-1,-1.8469632E-1,-4.9532246E-2,-1.6432075E-2,-1.1414053E-1,2.888812E-1,1.9593671E-2,-3.5110718E-1,-6.0488433E-3,-6.603564E-2,2.0025331E-1,6.306664E-2,2.4401562E-1,-8.303416E-2,1.0274065E-1],"split_indices":[11,7,16,8,7,15,0,18,11,3,2,10,19,7,19,2,14,17,16,14,15,19,19,5,11,19,7,1,5,2,0,18,8,15,5,19,13,9,0,0,7,6,18,15,3,4,12,0,0,0,3,6,9,9,18,5,5,0,0,0,0,0,0,0,0,0,0,0,0,0,0,0,0,0,0,0,0,0,0,0,0,0,0,0,0,0,0,0,0,0,0,0,0,0,0,0,0,0,0,0,0,0,0,0,0],"split_type":[0,0,0,0,0,0,0,0,0,0,0,0,0,0,0,0,0,0,0,0,0,0,0,0,0,0,0,0,0,0,0,0,0,0,0,0,0,0,0,0,0,0,0,0,0,0,0,0,0,0,0,0,0,0,0,0,0,0,0,0,0,0,0,0,0,0,0,0,0,0,0,0,0,0,0,0,0,0,0,0,0,0,0,0,0,0,0,0,0,0,0,0,0,0,0,0,0,0,0,0,0,0,0,0,0],"sum_hessian":[4.5855942E2,2.6316785E2,1.9539157E2,1.4721565E2,1.1595221E2,1.6606152E2,2.9330057E1,5.1152058E1,9.606359E1,1.6036655E1,9.991555E1,1.3054017E1,1.5300749E2,2.220109E1,7.1289663E0,3.326162E1,1.7890438E1,8.511376E1,1.094983E1,5.48238E0,1.0554275E1,3.67991E1,6.311645E1,5.897175E0,7.156842E0,1.3924484E2,1.3762657E1,1.8794336E1,3.4067543E0,5.140524E0,1.9884428E0,8.944786E0,2.4316832E1,2.5927436E0,1.5297694E1,7.60896E1,9.024161E0,7.257928E0,3.6919022E0,1.0220315E0,4.4603486E0,6.2152195E0,4.339055E0,3.3929226E0,3.3406178E1,5.7627273E0,5.7353725E1,1.4675188E0,4.429656E0,3.7126622E0,3.4441798E0,1.2178177E2,1.7463076E1,4.737129E0,9.025528E0,1.5509769E1,3.2845664E0,1.0050114E0,2.4017427E0,1.6248637E0,3.51566E0,5.7917914E0,3.1529946E0,1.955467E1,4.762162E0,1.4343358E0,1.1584078E0,1.3597713E1,1.69998E0,7.03305E1,5.7591023E0,2.8393092E0,6.184852E0,3.7581708E0,3.499757E0,3.1739068E0,1.2864417E0,2.946988E0,3.2682314E0,1.1200413E0,3.219014E0,1.3406622E0,2.0522606E0,2.4235384E1,9.170794E0,1.1927032E0,4.570024E0,3.46416E1,2.2712122E1,2.2992184E0,1.4134438E0,1.3234777E0,2.120702E0,1.0809698E2,1.368479E1,4.076568E0,1.3386508E1,3.6019883E0,1.1351409E0,7.6622543E0,1.3632736E0,5.6902714E0,9.819498E0,1.7880719E0,1.4964944E0],"tree_param":{"num_deleted":"0","num_feature":"20","num_nodes":"105","size_leaf_vector":"1"}},{"base_weights":[-3.560221E-3,-3.388149E-2,7.20119E-2,-4.1634253E-1,-1.3808281E-2,-2.730365E-1,1.03333056E-1,-7.5595456E-1,3.5623405E-2,5.387766E-3,-3.2192406E-1,-4.6580464E-1,1.1686554E-1,2.373669E-1,2.0180715E-2,8.141177E-2,-9.7017604E-1,9.338975E-2,-7.328934E-2,-1.9002158E-2,2.6424786E-1,-6.4142257E-1,1.6219825E-1,-6.066482E-1,7.368212E-2,8.7804146E-2,5.054289E-1,4.3599017E-2,-2.330931E-1,-4.3868523E-2,-3.2319903E-1,-1.1682891E-1,9.444163E-2,4.5615616E-1,-2.7320683E-1,-8.5182667E-1,4.2157155E-2,-1.939951E-1,4.3523204E-1,-2.4887888E-2,-3.3543712E-1,-7.6890424E-2,5.4702127E-1,-1.220481E-1,6.814186E-1,2.0021458E-1,1.8708088E-2,-2.2578903E-2,-2.5433597E-1,5.6257788E-2,-3.886071E-2,2.355942E-1,-2.5793626E-3,3.6933352E-4,-2.1217783E-1,-2.4019616E-2,-2.9954576E-1,7.445671E-2,-4.0587336E-2,-8.815911E-2,1.9874622E-1,-7.088684E-2,1.1288989E-1,1.2029559E-2,2.1701993E-1,8.1320554E-2,-2.0735204E-1,2.51485E-1,-1.3266738E-1,-8.184907E-2,2.8623985E-2],"categories":[],"categories_nodes":[],"categories_segments":[],"categories_sizes":[],"default_left":[0,0,0,0,0,0,0,0,0,0,0,0,0,0,0,0,0,0,0,0,0,0,0,0,0,0,0,0,0,0,0,0,0,0,0,0,0,0,0,0,0,0,0,0,0,0,0,0,0,0,0,0,0,0,0,0,0,0,0,0,0,0,0,0,0,0,0,0,0,0,0],"id":15,"left_children":[1,3,5,7,9,11,13,15,17,19,21,23,-1,25,27,-1,29,-1,-1,31,33,35,37,39,-1,41,43,45,-1,-1,-1,47,49,51,53,55,57,-1,59,-1,-1,61,63,65,67,-1,69,-1,-1,-1,-1,-1,-1,-1,-1,-1,-1,-1,-1,-1,-1,-1,-1,-1,-1,-1,-1,-1,-1,-1,-1],"loss_changes":[1.036043E0,2.4708638E0,1.4275287E0,2.4908674E0,1.8207115E0,1.5927813E0,1.3262721E0,2.2902708E0,6.811972E-1,1.8390338E0,2.8964E0,1.0522654E0,0E0,1.7850988E0,1.4301925E0,0E0,5.3463507E-1,0E0,0E0,2.9675732E0,2.711444E0,1.6291499E0,2.0427845E0,2.0000503E0,0E0,2.3488014E0,1.8645883E0,1.1304116E0,0E0,0E0,0E0,4.296043E0,2.6076646E0,2.89125E0,8.614511E-1,8.841076E-1,1.637303E-1,0E0,1.2816906E0,0E0,0E0,1.7739208E0,7.0186687E-1,1.1676545E0,2.6180587E0,0E0,1.631963E0,0E0,0E0,0E0,0E0,0E0,0E0,0E0,0E0,0E0,0E0,0E0,0E0,0E0,0E0,0E0,0E0,0E0,0E0,0E0,0E0,0E0,0E0,0E0,0E0],"parents":[2147483647,0,0,1,1,2,2,3,3,4,4,5,5,6,6,7,7,8,8,9,9,10,10,11,11,13,13,14,14,16,16,19,19,20,20,21,21,22,22,23,23,25,25,26,26,27,27,31,31,32,32,33,33,34,34,35,35,36,36,38,38,41,41,42,42,43,43,44,44,46,46],"right_children":[2,4,6,8,10,12,14,16,18,20,22,24,-1,26,28,-1,30,-1,-1,32,34,36,38,40,-1,42,44,46,-1,-1,-1,48,50,52,54,56,58,-1,60,-1,-1,62,64,66,68,-1,70,-1,-1,-1,-1,-1,-1,-1,-1,-1,-1,-1,-1,-1,-1,-1,-1,-1,-1,-1,-1,-1,-1,-1,-1],"split_conditions":[1.5887438E0,-3.4253242E0,-2.5882096E0,5.3062344E0,3.8298585E0,2.1978767E0,3.0662997E0,-4.438072E0,4.722593E0,2.6374254E0,8.53111E-2,2.6959543E0,1.1686554E-1,-6.176432E-1,6.8145237E0,8.141177E-2,-6.1938725E0,9.338975E-2,-7.328934E-2,5.299794E-1,2.511405E0,5.7880826E0,-1.7915888E0,-6.4256744E0,7.368212E-2,5.643695E0,-2.428569E0,-4.4298887E0,-2.330931E-1,-4.3868523E-2,-3.2319903E-1,3.0539072E0,9.0600395E-1,6.054868E-1,-4.6197863E0,-2.8724525E0,7.520938E0,-1.939951E-1,-2.0223196E0,-2.4887888E-2,-3.3543712E-1,7.0550036E0,-3.2608159E0,6.180207E-1,3.8255062E0,2.0021458E-1,-8.9912945E-1,-2.2578903E-2,-2.5433597E-1,5.6257788E-2,-3.886071E-2,2.355942E-1,-2.5793626E-3,3.6933352E-4,-2.1217783E-1,-2.4019616E-2,-2.9954576E-1,7.445671E-2,-4.0587336E-2,-8.815911E-2,1.9874622E-1,-7.088684E-2,1.1288989E-1,1.2029559E-2,2.1701993E-1,8.1320554E-2,-2.0735204E-1,2.51485E-1,-1.3266738E-1,-8.184907E-2,2.8623985E-2],"split_indices":[8,16,15,18,9,4,8,0,0,9,14,10,0,14,1,0,6,0,0,13,7,3,0,13,0,0,5,2,0,0,0,4,19,16,12,1,2,0,16,0,0,3,12,17,14,0,15,0,0,0,0,0,0,0,0,0,0,0,0,0,0,0,0,0,0,0,0,0,0,0,0],"split_type":[0,0,0,0,0,0,0,0,0,0,0,0,0,0,0,0,0,0,0,0,0,0,0,0,0,0,0,0,0,0,0,0,0,0,0,0,0,0,0,0,0,0,0,0,0,0,0,0,0,0,0,0,0,0,0,0,0,0,0,0,0,0,0,0,0,0,0,0,0,0,0],"sum_hessian":[4.5007092E2,3.2159238E2,1.2847856E2,1.5052437E1,3.0653995E2,1.0049645E1,1.1842892E2,8.210436E0,6.842001E0,2.89487E2,1.7052935E1,8.014858E0,2.0347865E0,4.4631878E1,7.379704E1,1.3706275E0,6.8398085E0,3.3906653E0,3.451336E0,2.6540683E2,2.4080166E1,1.0077396E1,6.975538E0,6.8132496E0,1.2016091E0,2.950011E1,1.5131764E1,7.260928E1,1.1877543E0,1.0592784E0,5.7805305E0,1.4249678E2,1.2291006E2,1.7855715E1,6.224452E0,7.5174255E0,2.5599709E0,1.4150716E0,5.560466E0,3.940675E0,2.8725743E0,2.232573E1,7.1743827E0,3.381566E0,1.1750198E1,1.795697E0,7.081359E1,1.358733E2,6.6234703E0,8.694056E1,3.59695E1,1.0048919E1,7.806796E0,4.4242806E0,1.8001713E0,1.4472932E0,6.0701323E0,1.0001082E0,1.5598626E0,1.2516714E0,4.3087945E0,1.6870523E1,5.455205E0,2.1687124E0,5.0056705E0,2.3098054E0,1.0717605E0,1.0533626E1,1.2165735E0,1.4217889E1,5.65957E1],"tree_param":{"num_deleted":"0","num_feature":"20","num_nodes":"71","size_leaf_vector":"1"}},{"base_weights":[-4.685829E-3,1.8821646E-1,-1.6240645E-2,-2.0382E-1,2.738697E-1,2.5920758E-2,-9.16697E-2,9.807772E-2,6.9175E-1,1.4757065E-2,7.147802E-1,-7.025527E-2,-5.3360283E-1,-5.9128582E-2,5.397044E-1,7.213179E-2,2.7645212E-1,-1.8211246E-1,4.134666E-2,2.5088164E-1,5.3178836E-2,2.2135628E-2,-1.4804026E-1,-2.558137E-1,2.6480906E-2,2.1805696E-1,-4.0913752E-1,2.0516455E-1,4.3287423E-2,-2.6477784E-1,3.7491405E-1,3.4382907E-1,1.5396243E-2,1.5368363E-1,-1.6618668E-1,-4.2060617E-1,-5.2542917E-2,2.1465237E-1,-5.914953E-3,-1.8813513E-1,2.8000461E-2,1.9291451E-2,-1.5710327E-1,2.2962442E-1,-9.071289E-2,1.7092502E-1,-8.293071E-2,3.402396E-2,-1.637352E-2,1.584594E-1,6.8101934E-3,-1.29407E-1,2.198609E-2,-1.9111617E-1,1.6943643E-2,-1.2399497E-1,1.05417725E-2],"categories":[],"categories_nodes":[],"categories_segments":[],"categories_sizes":[],"default_left":[0,0,0,0,0,0,0,0,0,0,0,0,0,0,0,0,0,0,0,0,0,0,0,0,0,0,0,0,0,0,0,0,0,0,0,0,0,0,0,0,0,0,0,0,0,0,0,0,0,0,0,0,0,0,0,0,0],"id":16,"left_children":[1,3,5,-1,7,9,11,13,15,17,19,21,23,25,27,-1,-1,29,31,-1,-1,33,35,-1,-1,37,39,-1,-1,41,43,45,47,49,51,53,55,-1,-1,-1,-1,-1,-1,-1,-1,-1,-1,-1,-1,-1,-1,-1,-1,-1,-1,-1,-1],"loss_changes":[9.9692017E-1,2.064629E0,1.3431776E0,0E0,1.6746271E0,2.0752196E0,1.3951933E0,1.2719733E0,4.8960567E-1,1.4100015E0,1.3284707E-1,1.0492282E0,1.4336193E0,1.4546132E0,1.7427039E-1,0E0,0E0,1.5757585E0,1.8539047E0,0E0,0E0,1.6951402E0,2.03803E0,0E0,0E0,1.0202318E0,7.778609E-1,0E0,0E0,2.4624891E0,1.4368402E0,2.7734134E0,1.5095253E0,1.9599203E0,1.8221473E0,2.1417925E0,1.9047458E0,0E0,0E0,0E0,0E0,0E0,0E0,0E0,0E0,0E0,0E0,0E0,0E0,0E0,0E0,0E0,0E0,0E0,0E0,0E0,0E0],"parents":[2147483647,0,0,1,1,2,2,4,4,5,5,6,6,7,7,8,8,9,9,10,10,11,11,12,12,13,13,14,14,17,17,18,18,21,21,22,22,25,25,26,26,29,29,30,30,31,31,32,32,33,33,34,34,35,35,36,36],"right_children":[2,4,6,-1,8,10,12,14,16,18,20,22,24,26,28,-1,-1,30,32,-1,-1,34,36,-1,-1,38,40,-1,-1,42,44,46,48,50,52,54,56,-1,-1,-1,-1,-1,-1,-1,-1,-1,-1,-1,-1,-1,-1,-1,-1,-1,-1,-1,-1],"split_conditions":[-3.2890303E0,-2.8391855E0,3.914949E0,-2.0382E-1,-3.6839283E0,4.164551E0,4.525189E0,2.6959543E0,-2.1710455E0,-2.3008702E0,1.1053886E0,-1.5586389E0,2.1688511E0,4.9185843E0,-7.4419536E-2,7.213179E-2,2.7645212E-1,9.715732E-1,-1.5956805E0,2.5088164E-1,5.3178836E-2,7.856364E-1,4.9185843E0,-2.558137E-1,2.6480906E-2,2.3041572E-1,5.974121E0,2.0516455E-1,4.3287423E-2,-6.176432E-1,2.7301073E0,2.2068365E0,-5.041406E-1,-1.5863829E0,6.9789124E-1,2.1405709E0,-1.7234251E0,2.1465237E-1,-5.914953E-3,-1.8813513E-1,2.8000461E-2,1.9291451E-2,-1.5710327E-1,2.2962442E-1,-9.071289E-2,1.7092502E-1,-8.293071E-2,3.402396E-2,-1.637352E-2,1.584594E-1,6.8101934E-3,-1.29407E-1,2.198609E-2,-1.9111617E-1,1.6943643E-2,-1.2399497E-1,1.05417725E-2],"split_indices":[18,0,0,0,18,14,6,10,7,19,13,3,5,0,12,0,0,18,19,0,0,7,0,0,0,9,0,0,0,14,3,5,11,1,16,5,8,0,0,0,0,0,0,0,0,0,0,0,0,0,0,0,0,0,0,0,0],"split_type":[0,0,0,0,0,0,0,0,0,0,0,0,0,0,0,0,0,0,0,0,0,0,0,0,0,0,0,0,0,0,0,0,0,0,0,0,0,0,0,0,0,0,0,0,0,0,0,0,0,0,0,0,0,0,0,0,0],"sum_hessian":[4.4488846E2,2.4278652E1,4.2060983E2,1.558634E0,2.2720018E1,2.7022354E2,1.5038628E2,1.6861502E1,5.858517E0,2.6691925E2,3.3042853E0,1.4454132E2,5.844962E0,1.307374E1,3.787761E0,2.6667423E0,3.1917748E0,3.1064978E1,2.3585428E2,2.2417836E0,1.0625018E0,6.6394806E1,7.814651E1,3.6174781E0,2.227484E0,7.5062485E0,5.567491E0,2.241072E0,1.5466892E0,2.7507408E1,3.5575707E0,1.7667658E1,2.1818661E2,3.9197956E1,2.7196852E1,1.9392527E1,5.8753983E1,1.7777599E0,5.728489E0,3.7099848E0,1.8575065E0,1.2442984E1,1.5064424E1,2.174006E0,1.3835648E0,1.3010312E1,4.657346E0,9.062413E1,1.2756249E2,9.371069E0,2.9826885E1,1.2525763E1,1.4671089E1,1.3109569E1,6.2829576E0,1.0761466E1,4.799252E1],"tree_param":{"num_deleted":"0","num_feature":"20","num_nodes":"57","size_leaf_vector":"1"}},{"base_weights":[-2.4356083E-3,4.409409E-1,-6.426497E-3,-1.3901943E-3,2.0199068E-1,1.3905552E-1,-1.92924E-2,2.997603E-1,-1.53628E-1,-4.9047448E-2,4.5794956E-2,6.51027E-2,7.999484E-1,3.37568E-1,-4.7454572E-1,-3.296074E-1,-3.3159446E-2,-2.3203453E-1,7.05148E-2,-1.4048465E-1,4.656236E-1,1.025818E0,-9.0705186E-2,2.433189E-1,-6.6785835E-2,-2.4919747E-1,-8.1621565E-2,-6.947451E-1,4.217128E-2,-2.8487134E-3,-2.1676885E-1,1.4919838E-1,-4.8954675E-1,4.6313187E-1,5.0033882E-2,1.2383631E-2,-2.553671E-1,2.7470112E-1,-1.6183687E-2,3.701548E-1,7.782387E-2,-2.1689375E-1,8.122707E-2,5.915248E-2,-2.729602E-1,7.4460305E-2,-6.105846E-2,-3.1977527E-2,3.0130666E-2,-2.5421795E-1,-2.5921492E-2,9.89609E-2,-4.3363307E-2,-2.4382463E-1,-6.2286086E-2,1.8904014E-1,7.545033E-2,-6.2395353E-2,2.4649778E-2],"categories":[],"categories_nodes":[],"categories_segments":[],"categories_sizes":[],"default_left":[0,0,0,0,0,0,0,0,0,0,0,0,0,0,0,0,0,0,0,0,0,0,0,0,0,0,0,0,0,0,0,0,0,0,0,0,0,0,0,0,0,0,0,0,0,0,0,0,0,0,0,0,0,0,0,0,0,0,0],"id":17,"left_children":[1,3,5,-1,-1,7,9,11,13,15,17,19,21,23,25,27,29,31,33,35,37,39,-1,-1,-1,-1,41,43,45,47,49,51,53,55,57,-1,-1,-1,-1,-1,-1,-1,-1,-1,-1,-1,-1,-1,-1,-1,-1,-1,-1,-1,-1,-1,-1,-1,-1],"loss_changes":[7.845417E-1,4.126374E-1,8.240489E-1,0E0,0E0,1.7288177E0,7.847498E-1,2.6984615E0,2.26337E0,1.2272218E0,8.9049876E-1,1.4684858E0,2.1512403E0,1.7340208E0,1.1195382E0,2.034995E0,1.4685806E0,1.1168439E0,9.2283946E-1,1.5890031E0,1.4550624E0,6.946931E-1,0E0,0E0,0E0,0E0,1.3581214E0,1.6205983E0,4.6883294E-1,2.449433E0,3.0008037E0,3.1584272E-1,4.3077433E-1,4.3385744E-2,9.53391E-1,0E0,0E0,0E0,0E0,0E0,0E0,0E0,0E0,0E0,0E0,0E0,0E0,0E0,0E0,0E0,0E0,0E0,0E0,0E0,0E0,0E0,0E0,0E0,0E0],"parents":[2147483647,0,0,1,1,2,2,5,5,6,6,7,7,8,8,9,9,10,10,11,11,12,12,13,13,14,14,15,15,16,16,17,17,18,18,19,19,20,20,21,21,26,26,27,27,28,28,29,29,30,30,31,31,32,32,33,33,34,34],"right_children":[2,4,6,-1,-1,8,10,12,14,16,18,20,22,24,26,28,30,32,34,36,38,40,-1,-1,-1,-1,42,44,46,48,50,52,54,56,58,-1,-1,-1,-1,-1,-1,-1,-1,-1,-1,-1,-1,-1,-1,-1,-1,-1,-1,-1,-1,-1,-1,-1,-1],"split_conditions":[-4.962718E0,5.135797E-1,-3.9712875E0,-1.3901943E-3,2.0199068E-1,7.4013364E-1,1.5887438E0,-1.5143861E-1,-9.453675E-1,-3.4253242E0,-2.5882096E0,1.2544496E0,2.0631125E0,3.4906447E0,4.0950924E-1,3.7696903E0,1.7320975E0,7.395722E-1,-4.8785644E0,6.643022E-1,2.6224642E0,9.2111856E-1,-9.0705186E-2,2.433189E-1,-6.6785835E-2,-2.4919747E-1,-9.4209146E-1,-4.438072E0,4.722593E0,3.1341344E-1,1.9298942E0,4.448075E0,2.0143435E0,4.6907835E0,-3.1350775E0,1.2383631E-2,-2.553671E-1,2.7470112E-1,-1.6183687E-2,3.701548E-1,7.782387E-2,-2.1689375E-1,8.122707E-2,5.915248E-2,-2.729602E-1,7.4460305E-2,-6.105846E-2,-3.1977527E-2,3.0130666E-2,-2.5421795E-1,-2.5921492E-2,9.89609E-2,-4.3363307E-2,-2.4382463E-1,-6.2286086E-2,1.8904014E-1,7.545033E-2,-6.2395353E-2,2.4649778E-2],"split_indices":[3,16,8,0,0,14,8,14,16,16,15,15,18,18,16,18,19,6,18,10,6,9,0,0,0,0,13,0,0,10,19,0,4,0,12,0,0,0,0,0,0,0,0,0,0,0,0,0,0,0,0,0,0,0,0,0,0,0,0],"split_type":[0,0,0,0,0,0,0,0,0,0,0,0,0,0,0,0,0,0,0,0,0,0,0,0,0,0,0,0,0,0,0,0,0,0,0,0,0,0,0,0,0,0,0,0,0,0,0,0,0,0,0,0,0,0,0,0,0,0,0],"sum_hessian":[4.407762E2,2.955376E0,4.3782083E2,1.3488623E0,1.6065136E0,3.47764E1,4.0304443E2,2.2434198E1,1.2342205E1,2.7676584E2,1.26278595E2,1.603957E1,6.394628E0,4.856686E0,7.4855185E0,1.3774885E1,2.6299094E2,9.632388E0,1.1664621E2,1.1028095E1,5.0114756E0,5.364735E0,1.0298926E0,2.3893018E0,2.4673843E0,3.3423026E0,4.143216E0,6.511244E0,7.2636414E0,2.265989E2,3.639204E1,4.052902E0,5.579486E0,4.711643E0,1.1193457E2,9.532251E0,1.4958436E0,2.2768881E0,2.7345874E0,3.7397168E0,1.6250186E0,1.0962464E0,3.04697E0,1.2814866E0,5.229757E0,3.9452205E0,3.3184206E0,1.130324E2,1.135665E2,5.292038E0,3.1100002E1,2.433283E0,1.6196191E0,1.7222502E0,3.8572357E0,1.5281985E0,3.183445E0,1.1789863E1,1.0014471E2],"tree_param":{"num_deleted":"0","num_feature":"20","num_nodes":"59","size_leaf_vector":"1"}},{"base_weights":[-2.1705658E-3,-6.6084997E-3,3.8921684E-1,5.4959375E-3,-1.7618802E-1,7.1703265E-3,2.050509E-1,-1.9383298E-2,7.7588014E-2,2.0602928E-2,-3.7106788E-1,-3.0397445E-2,4.0379378E-1,-6.3822275E-1,1.03318624E-1,-8.906982E-2,1.6691734E-1,-1.9003578E-2,-7.54615E-1,-1.3434096E-1,4.434952E-3,-4.5932345E-2,6.265881E-1,-2.4349582E-1,-2.465227E-2,7.022909E-2,6.8093604E-1,9.127046E-2,-3.8320428E-1,1.1065867E-1,-1.9596459E-1,-2.736963E-1,-3.0931719E-2,-2.5918271E-2,-2.1914764E-1,4.831151E-2,-1.2256763E-2,2.0035088E-2,2.2221203E-1,-1.0282535E-1,3.2863375E-2,2.8959142E-2,2.8466427E-1,2.0991682E-1,-2.1461152E-2,-1.8161538E-1,1.4503901E-2,-1.2688862E-1,-1.2450039E-2],"categories":[],"categories_nodes":[],"categories_segments":[],"categories_sizes":[],"default_left":[0,0,0,0,0,0,0,0,0,0,0,0,0,0,0,0,0,0,0,0,0,0,0,0,0,0,0,0,0,0,0,0,0,0,0,0,0,0,0,0,0,0,0,0,0,0,0,0,0],"id":18,"left_children":[1,3,5,7,9,-1,-1,11,13,15,17,19,21,23,25,27,-1,29,31,33,35,-1,37,-1,-1,39,41,43,45,-1,47,-1,-1,-1,-1,-1,-1,-1,-1,-1,-1,-1,-1,-1,-1,-1,-1,-1,-1],"loss_changes":[7.639029E-1,8.9261174E-1,5.1378345E-1,7.304445E-1,1.118678E0,0E0,0E0,1.4242698E0,1.9901016E0,9.5224595E-1,1.9582925E0,1.072974E0,1.0581046E0,2.9631782E-1,1.896095E0,7.571062E-1,0E0,6.654933E-1,6.216495E-1,2.0627685E0,1.586928E0,0E0,3.1692433E-1,0E0,0E0,1.6175282E0,7.533045E-1,9.660712E-1,5.4384065E-1,0E0,2.1344152E-1,0E0,0E0,0E0,0E0,0E0,0E0,0E0,0E0,0E0,0E0,0E0,0E0,0E0,0E0,0E0,0E0,0E0,0E0],"parents":[2147483647,0,0,1,1,2,2,3,3,4,4,7,7,8,8,9,9,10,10,11,11,12,12,13,13,14,14,15,15,17,17,18,18,19,19,20,20,22,22,25,25,26,26,27,27,28,28,30,30],"right_children":[2,4,6,8,10,-1,-1,12,14,16,18,20,22,24,26,28,-1,30,32,34,36,-1,38,-1,-1,40,42,44,46,-1,48,-1,-1,-1,-1,-1,-1,-1,-1,-1,-1,-1,-1,-1,-1,-1,-1,-1,-1],"split_conditions":[8.95586E0,6.295627E0,-5.4928613E0,1.2807122E0,6.962713E-1,7.1703265E-3,2.050509E-1,4.3347797E0,-4.436179E0,2.4149961E0,-4.457852E0,-1.6895069E0,-1.5114052E0,1.6027371E0,3.6853952E0,7.7503633E-1,1.6691734E-1,1.5471127E0,2.569545E0,3.0413985E0,-1.9221345E0,-4.5932345E-2,-2.7076151E0,-2.4349582E-1,-2.465227E-2,-3.625012E0,-1.7621543E0,6.6770935E0,6.714185E0,1.1065867E-1,1.2613961E1,-2.736963E-1,-3.0931719E-2,-2.5918271E-2,-2.1914764E-1,4.831151E-2,-1.2256763E-2,2.0035088E-2,2.2221203E-1,-1.0282535E-1,3.2863375E-2,2.8959142E-2,2.8466427E-1,2.0991682E-1,-2.1461152E-2,-1.8161538E-1,1.4503901E-2,-1.2688862E-1,-1.2450039E-2],"split_indices":[4,0,9,15,4,0,0,5,9,10,1,8,17,2,13,14,0,2,16,13,12,0,15,0,0,4,14,0,0,0,7,0,0,0,0,0,0,0,0,0,0,0,0,0,0,0,0,0,0],"split_type":[0,0,0,0,0,0,0,0,0,0,0,0,0,0,0,0,0,0,0,0,0,0,0,0,0,0,0,0,0,0,0,0,0,0,0,0,0,0,0,0,0,0,0,0,0,0,0,0,0],"sum_hessian":[4.373144E2,4.333834E2,3.9310105E0,4.0541296E2,2.797043E1,2.2362416E0,1.694769E0,3.019426E2,1.0347035E2,1.4361934E1,1.3608497E1,2.9518784E2,6.754767E0,2.764328E0,1.00706024E2,1.2613734E1,1.7481993E0,7.6426907E0,5.9658055E0,7.3374344E1,2.2181349E2,2.0195184E0,4.735248E0,1.7567294E0,1.0075985E0,9.6310356E1,4.395675E0,8.24701E0,4.3667245E0,2.0547132E0,5.5879774E0,4.4808426E0,1.4849632E0,6.897204E1,4.4023037E0,4.9185993E1,1.726275E2,1.070274E0,3.6649742E0,7.7008314E0,8.860952E1,1.8094364E0,2.5862386E0,1.0447335E0,7.2022767E0,2.6167169E0,1.7500079E0,1.5588617E0,4.0291157E0],"tree_param":{"num_deleted":"0","num_feature":"20","num_nodes":"49","size_leaf_vector":"1"}},{"base_weights":[-1.4994795E-3,1.6828883E-1,-1.0500139E-2,-9.778929E-2,4.0457624E-1,-4.9689606E-2,3.2739393E-2,-2.341862E-1,1.7170866E-1,-2.07625E-1,5.7258826E-1,-8.909381E-2,1.435508E-1,4.2953253E-1,1.3544253E-2,-2.6262763E-1,4.4236454E-1,3.1548622E-1,2.3092844E-1,-6.727611E-2,-5.5270857E-1,1.947046E-1,-1.9249795E-1,6.069489E-1,-1.1118229E-1,4.719348E-2,-1.7018725E-1,3.455183E-2,-1.972355E-1,1.27089415E-2,6.437279E-1,4.724937E-1,-1.9603589E-1,2.6117623E-1,-9.500334E-2,-4.2859808E-2,-3.6326224E-1,2.9115468E-1,-1.1488784E-1,8.377438E-1,-2.0224817E-2,1.8259992E-1,-1.1852666E-2,-3.3018535E-1,2.5092623E-1,4.744609E-2,2.3584242E-1,2.0492008E-1,1.9593822E-2,7.054704E-2,-1.7672287E-1,-6.04212E-2,1.4257818E-1,-8.5138746E-2,-1.0393088E-2,-1.3185474E-1,8.163048E-2,-2.8973984E-4,1.3190138E-1,-9.816273E-2,1.9626543E-2,3.2037303E-1,-4.3545384E-2,1.1706345E-2,1.4582932E-1,2.1052508E-2,-7.945474E-2,-1.8727913E-2,-1.666767E-1,-5.174499E-2,2.502316E-1],"categories":[],"categories_nodes":[],"categories_segments":[],"categories_sizes":[],"default_left":[0,0,0,0,0,0,0,0,0,0,0,0,0,0,0,0,0,0,0,0,0,0,0,0,0,0,0,0,0,0,0,0,0,0,0,0,0,0,0,0,0,0,0,0,0,0,0,0,0,0,0,0,0,0,0,0,0,0,0,0,0,0,0,0,0,0,0,0,0,0,0],"id":19,"left_children":[1,3,5,7,9,11,13,-1,15,-1,17,19,21,23,25,27,29,-1,31,33,35,37,-1,39,-1,41,43,-1,-1,-1,45,47,49,51,53,55,-1,57,59,61,-1,63,65,67,69,-1,-1,-1,-1,-1,-1,-1,-1,-1,-1,-1,-1,-1,-1,-1,-1,-1,-1,-1,-1,-1,-1,-1,-1,-1,-1],"loss_changes":[6.678136E-1,1.4227052E0,7.0458E-1,2.186414E0,2.5790775E0,1.6727947E0,1.5009497E0,0E0,1.1526016E0,0E0,1.5280521E0,1.8006972E0,1.6234584E0,1.5161862E0,1.1810437E0,6.742033E-1,4.4023478E-1,0E0,8.761848E-1,1.6155505E0,2.641958E0,1.1022421E0,0E0,1.2742462E0,0E0,1.2905691E0,2.0763252E0,0E0,0E0,0E0,1.3777483E-1,3.9654255E-1,7.235354E-1,1.4687053E0,1.8340273E0,8.142488E-1,0E0,1.1967118E0,3.7435257E-1,1.4906063E0,0E0,2.1159716E0,2.3668184E0,1.285397E0,2.2956436E0,0E0,0E0,0E0,0E0,0E0,0E0,0E0,0E0,0E0,0E0,0E0,0E0,0E0,0E0,0E0,0E0,0E0,0E0,0E0,0E0,0E0,0E0,0E0,0E0,0E0,0E0],"parents":[2147483647,0,0,1,1,2,2,3,3,4,4,5,5,6,6,8,8,10,10,11,11,12,12,13,13,14,14,15,15,16,16,18,18,19,19,20,20,21,21,23,23,25,25,26,26,30,30,31,31,32,32,33,33,34,34,35,35,37,37,38,38,39,39,41,41,42,42,43,43,44,44],"right_children":[2,4,6,8,10,12,14,-1,16,-1,18,20,22,24,26,28,30,-1,32,34,36,38,-1,40,-1,42,44,-1,-1,-1,46,48,50,52,54,56,-1,58,60,62,-1,64,66,68,70,-1,-1,-1,-1,-1,-1,-1,-1,-1,-1,-1,-1,-1,-1,-1,-1,-1,-1,-1,-1,-1,-1,-1,-1,-1,-1],"split_conditions":[-5.400508E0,-4.589699E0,2.2602224E-1,-1.3460217E0,-1.8059961E0,1.9871494E0,3.6069974E-1,-2.341862E-1,2.834106E-1,-2.07625E-1,-4.307006E-2,1.6954792E0,6.8429366E-2,2.53133E0,6.0889115E0,2.0245036E-1,1.2769278E0,3.1548622E-1,-2.4847822E0,-3.3947976E0,-1.7877938E0,1.187868E0,-1.9249795E-1,1.6027371E0,-1.1118229E-1,-4.479157E-1,1.4835715E0,3.455183E-2,-1.972355E-1,1.27089415E-2,-4.63122E-1,3.8822327E0,-2.5133266E0,-9.389944E-1,-5.096917E-1,1.1324836E0,-3.6326224E-1,-2.760947E0,-2.910145E-1,3.697907E0,-2.0224817E-2,-1.0730993E0,1.1820203E0,-1.1619844E0,-2.3027263E0,4.744609E-2,2.3584242E-1,2.0492008E-1,1.9593822E-2,7.054704E-2,-1.7672287E-1,-6.04212E-2,1.4257818E-1,-8.5138746E-2,-1.0393088E-2,-1.3185474E-1,8.163048E-2,-2.8973984E-4,1.3190138E-1,-9.816273E-2,1.9626543E-2,3.2037303E-1,-4.3545384E-2,1.1706345E-2,1.4582932E-1,2.1052508E-2,-7.945474E-2,-1.8727913E-2,-1.666767E-1,-5.174499E-2,2.502316E-1],"split_indices":[2,1,15,14,18,19,15,0,13,0,12,19,15,17,1,16,5,0,14,12,15,14,0,2,0,19,14,0,0,0,6,13,1,8,12,2,0,15,18,6,0,19,9,17,6,0,0,0,0,0,0,0,0,0,0,0,0,0,0,0,0,0,0,0,0,0,0,0,0,0,0],"split_type":[0,0,0,0,0,0,0,0,0,0,0,0,0,0,0,0,0,0,0,0,0,0,0,0,0,0,0,0,0,0,0,0,0,0,0,0,0,0,0,0,0,0,0,0,0,0,0,0,0,0,0,0,0,0,0,0,0,0,0,0,0,0,0,0,0,0,0,0,0,0,0],"sum_hessian":[4.3483536E2,2.0999712E1,4.1383566E2,1.0152897E1,1.0846814E1,2.1700627E2,1.9682938E2,2.3364422E0,7.816455E0,1.0266095E0,9.820205E0,1.8069849E2,3.6307796E1,8.095974E0,1.887334E2,3.012229E0,4.8042264E0,3.2231429E0,6.597062E0,1.7367065E2,7.0278244E0,3.4793175E1,1.5146224E0,6.824265E0,1.271709E0,1.6014671E2,2.8586687E1,1.901249E0,1.1109798E0,2.013955E0,2.790271E0,4.145188E0,2.451874E0,1.2864175E1,1.6080647E2,4.5603013E0,2.467523E0,2.6573921E1,8.2192545E0,4.9037375E0,1.9205275E0,4.7993668E1,1.12153046E2,2.0872355E1,7.7143326E0,1.11139E0,1.6788812E0,2.2856271E0,1.8595608E0,1.3607426E0,1.0911316E0,4.0887303E0,8.775444E0,3.8060257E1,1.2274622E2,1.8433566E0,2.7169447E0,9.29159E0,1.7282331E1,3.400424E0,4.818831E0,3.9032197E0,1.000518E0,3.3346615E1,1.464705E1,8.523907E1,2.691398E1,1.0123505E1,1.0748849E1,4.877398E0,2.8369346E0],"tree_param":{"num_deleted":"0","num_feature":"20","num_nodes":"71","size_leaf_vector":"1"}},{"base_weights":[-1.1067628E-3,1.3275468E-1,-1.2752375E-2,6.187747E-1,2.05963E-2,1.4747845E-1,-2.9311897E-2,7.94554E-1,-4.3030843E-2,-7.6373E-2,3.3808717E-1,5.01943E-1,-2.5435938E-2,4.7653145E-1,-3.4113694E-2,3.4183145E-2,3.081169E-1,2.512854E-2,-2.4431683E-1,5.0958768E-2,1.5685691E-1,-1.4696117E-1,6.4323026E-1,-2.9757527E-1,2.138181E-1,-4.120771E-3,2.0790774E-1,-6.55218E-2,4.089747E-2,-7.9679735E-2,1.8045656E-1,-6.357837E-2,8.603003E-1,-7.1212864E-1,-8.536092E-2,1.3622855E-2,6.682842E-1,-5.0663805E-1,-4.3246437E-2,-2.7052712E-1,9.37059E-2,1.8720333E-2,-2.1144934E-1,-1.198527E-1,7.579478E-2,3.1652898E-1,4.04446E-2,-3.1862035E-2,-3.1732988E-1,1.5681602E-1,-8.491225E-2,1.6690382E-1,-6.663016E-2,-2.5825042E-3,2.766014E-1,-2.1386768E-1,1.3593669E-1,-5.5410335E-4,-4.7505684E-2,-3.0024135E-1,-2.7320325E-2,6.63504E-2,-3.1929255E-2],"categories":[],"categories_nodes":[],"categories_segments":[],"categories_sizes":[],"default_left":[0,0,0,0,0,0,0,0,0,0,0,0,0,0,0,0,0,0,0,0,0,0,0,0,0,0,0,0,0,0,0,0,0,0,0,0,0,0,0,0,0,0,0,0,0,0,0,0,0,0,0,0,0,0,0,0,0,0,0,0,0,0,0],"id":20,"left_children":[1,3,5,7,9,11,13,15,-1,17,19,21,23,25,27,-1,-1,29,-1,-1,-1,-1,31,33,35,-1,-1,37,39,41,-1,43,45,47,49,51,53,55,57,59,61,-1,-1,-1,-1,-1,-1,-1,-1,-1,-1,-1,-1,-1,-1,-1,-1,-1,-1,-1,-1,-1,-1],"loss_changes":[6.742917E-1,1.8743918E0,1.059926E0,9.7903824E-1,9.236445E-1,2.3069503E0,8.941009E-1,7.3742604E-1,0E0,1.7550203E0,1.289922E-1,2.0416093E0,1.7636379E0,3.7732327E-1,8.4833425E-1,0E0,0E0,1.3362345E0,0E0,0E0,0E0,0E0,1.7756505E0,1.0506284E0,1.30797E0,0E0,0E0,2.4679098E0,1.7776954E0,1.7251742E0,0E0,4.798195E-1,1.0802097E0,7.549691E-1,1.2889571E0,1.5398035E0,7.6463187E-1,2.7157474E0,1.1543586E0,1.9671855E0,2.3665335E0,0E0,0E0,0E0,0E0,0E0,0E0,0E0,0E0,0E0,0E0,0E0,0E0,0E0,0E0,0E0,0E0,0E0,0E0,0E0,0E0,0E0,0E0],"parents":[2147483647,0,0,1,1,2,2,3,3,4,4,5,5,6,6,7,7,9,9,10,10,11,11,12,12,13,13,14,14,17,17,22,22,23,23,24,24,27,27,28,28,29,29,31,31,32,32,33,33,34,34,35,35,36,36,37,37,38,38,39,39,40,40],"right_children":[2,4,6,8,10,12,14,16,-1,18,20,22,24,26,28,-1,-1,30,-1,-1,-1,-1,32,34,36,-1,-1,38,40,42,-1,44,46,48,50,52,54,56,58,60,62,-1,-1,-1,-1,-1,-1,-1,-1,-1,-1,-1,-1,-1,-1,-1,-1,-1,-1,-1,-1,-1,-1],"split_conditions":[-4.1617723E0,-6.340603E-1,-3.5457878E0,1.5350828E0,1.6510568E0,-9.2575955E-1,-5.102202E0,-2.061136E0,-4.3030843E-2,9.118184E-1,